<?xml version="1.0"?>
<opencv_storage>
<opencv_ml_svm>
  <format>3</format>
  <svmType>C_SVC</svmType>
  <kernel>
    <type>LINEAR</type></kernel>
  <C>1.</C>
  <term_criteria><epsilon>1.1920928955078125e-07</epsilon>
    <iterations>1000</iterations></term_criteria>
  <var_count>128</var_count>
  <class_count>6</class_count>
  <class_labels type_id="opencv-matrix">
    <rows>6</rows>
    <cols>1</cols>
    <dt>i</dt>
    <data>
      -1 1 2 3 4 5</data></class_labels>
  <sv_total>15</sv_total>
  <support_vectors>
    <_>
      1.55856670e-03 1.14246586e-03 1.29562174e-03 1.52236212e-03
      1.78996439e-03 1.51595823e-03 1.84740941e-03 1.76189223e-03
      1.38653116e-03 1.25504297e-03 1.42053922e-03 1.27693720e-03
      1.16079068e-03 6.76959404e-04 1.91406568e-03 1.75952225e-03
      1.41040061e-03 1.29206304e-03 1.32305792e-03 9.37724428e-04
      -8.61266511e-04 -8.22038157e-04 2.24898150e-03 1.91753183e-03
      8.02136899e-04 8.69251380e-04 -1.82045755e-04 -2.63195927e-03
      -3.04766558e-03 -1.25493482e-03 1.32694794e-03 5.78149862e-04
      -1.68501050e-03 -1.28820573e-03 -2.83385068e-03 -5.60158305e-03
      -6.36564521e-03 -1.35335000e-03 5.78764477e-04 -8.26850592e-04
      9.50875867e-04 -5.78041072e-04 -2.22764356e-04 -9.91016932e-05
      -4.82556643e-03 9.96067538e-05 1.78633770e-03 -8.02268158e-04
      2.03835452e-03 4.92485706e-04 3.48812062e-03 4.79737017e-03
      -3.40379798e-03 1.37901027e-03 2.93624168e-03 -8.62413872e-05
      1.61215093e-03 4.25342063e-04 3.18157859e-03 4.54351772e-03
      -3.88957839e-03 2.06824671e-03 2.68117851e-03 -5.53401733e-05
      8.06242286e-04 4.04997554e-04 2.84067634e-03 3.85299418e-03
      -3.38352052e-03 3.08138528e-03 2.49704346e-03 1.70777334e-04
      6.07182388e-04 6.17616693e-04 1.97842740e-03 2.46267463e-03
      -3.35149886e-03 3.21002235e-03 1.66939117e-03 -1.26867017e-04
      1.45961449e-03 8.33636848e-04 1.55222684e-03 1.93542056e-03
      -3.70737817e-03 2.04893574e-03 6.01177802e-04 -1.78689326e-04
      2.61928677e-03 1.27014460e-03 1.49177713e-03 1.12332264e-03
      -4.87497263e-03 7.27284874e-04 -2.00688810e-04 1.24683406e-03
      1.95882819e-03 1.62860192e-03 3.76536162e-04 -4.57248272e-04
      -4.68884781e-03 -1.80762145e-04 -6.88228291e-04 1.13044062e-03
      1.38377084e-03 1.25927990e-03 -2.80018867e-04 -1.10741612e-03
      -3.44798458e-03 -1.12409552e-03 -1.51858828e-03 -1.06192962e-03
      5.95952675e-04 9.90313827e-04 2.08853511e-03 1.57554259e-05
      -7.85531825e-04 -6.10251212e-04 -2.70020729e-03 -1.79552217e-03
      -5.06516546e-04 2.79057276e-05 2.64672562e-03 2.06231046e-03
      2.12066853e-03 -1.02019124e-03 -4.36905259e-03 -2.89690727e-03</_>
    <_>
      6.57306926e-04 7.57414789e-04 4.45244717e-04 -1.76738342e-03
      -1.46899640e-03 7.89870857e-04 5.90672309e-04 3.78745230e-04
      7.24581885e-04 4.17325937e-04 -2.40351958e-03 -7.41976022e-04
      -5.65317343e-04 1.17242118e-04 7.05263868e-04 5.23742870e-04
      8.61795910e-04 9.43348277e-05 -3.62737151e-03 -1.21561938e-03
      -1.87840522e-03 -2.05902150e-03 1.20901316e-03 7.28238141e-04
      1.07435393e-03 -1.57081828e-04 -6.65752799e-04 1.88340072e-03
      -4.31973807e-04 -2.64019659e-03 1.26941234e-03 1.34389219e-03
      2.50462530e-04 6.84486062e-04 5.23325289e-04 1.69295794e-03
      4.80042305e-04 -2.57672998e-03 1.40479743e-03 9.38261393e-04
      -8.85672285e-04 1.34053384e-03 9.46093933e-04 1.62400806e-03
      2.87581090e-04 -2.43884255e-03 1.69702352e-03 2.49853183e-04
      -7.04248552e-04 2.01413222e-03 1.84518029e-03 2.01735739e-03
      -6.19176077e-04 -1.87799963e-03 2.24467926e-03 2.43129252e-04
      -8.73876852e-04 2.24744761e-03 2.45687226e-03 1.73237897e-03
      -2.61722738e-03 -1.05425052e-03 2.54873629e-03 -6.31940376e-04
      -9.50155372e-04 2.33061821e-03 2.74173287e-03 4.54866604e-05
      -3.14993667e-03 2.70971883e-04 2.51334417e-03 -8.48291384e-04
      -5.84043097e-04 2.59840908e-03 2.04082206e-03 -2.22959160e-03
      -1.93447748e-03 1.50623359e-03 1.80918572e-03 -7.02888588e-04
      -9.35815799e-04 2.71098595e-03 -3.24195978e-04 -2.33575213e-03
      8.42443842e-04 2.04030587e-03 1.19374332e-03 -6.72214723e-04
      4.93085594e-04 2.38229102e-03 -1.60036818e-03 -8.10453319e-04
      2.69718678e-03 2.20431876e-03 1.24770566e-03 -6.13974058e-04
      1.98961282e-03 1.52656599e-03 -2.32520071e-03 1.14738464e-03
      2.93464167e-03 2.40336591e-03 1.30607758e-03 1.07707328e-03
      1.74659595e-03 2.58742686e-04 -2.44898861e-03 -1.99347996e-04
      1.14549929e-03 1.21921860e-03 1.00250938e-03 1.33775000e-03
      1.66102010e-03 -2.97363964e-04 -2.29364983e-03 -2.24916055e-03
      -1.87091902e-03 -2.16111774e-03 2.39265908e-04 1.26101088e-03
      1.46679766e-03 1.70412561e-04 -1.58550160e-03 -1.32682151e-03
      -1.38991524e-03 -2.01796112e-03 3.57616431e-04 1.38691126e-03</_>
    <_>
      8.78143415e-04 1.10427837e-03 1.51287953e-04 -1.55487913e-03
      4.46640071e-04 1.82824128e-03 1.59802625e-03 6.92950271e-04
      7.55509012e-04 7.64765951e-04 -2.11228430e-03 -3.49740288e-03
      -1.71498244e-03 -1.03399379e-03 1.62499573e-03 5.01596835e-04
      4.70060564e-04 6.43451058e-04 -2.18397076e-03 -2.92171678e-03
      -2.87353876e-03 -3.57957860e-03 1.24817085e-03 4.68180573e-04
      9.31888208e-05 7.72677886e-04 -8.21040419e-04 -4.10078675e-04
      -2.15265923e-03 -4.48879134e-03 7.85201672e-04 5.85952017e-04
      -1.01613544e-03 8.23186943e-04 -4.26903513e-04 2.62581772e-04
      -1.40195130e-03 -4.32627695e-03 9.52094211e-04 3.26300360e-04
      -5.39161614e-04 1.31083326e-03 7.09546672e-04 1.72346889e-03
      -4.48701030e-04 -2.66571133e-03 1.59283378e-03 4.09278087e-04
      5.12599363e-05 2.07662862e-03 1.97726232e-03 1.83105317e-03
      -7.15305039e-04 -3.69640329e-04 2.70862039e-03 1.53671496e-03
      -1.26938708e-03 1.96703547e-03 7.58465379e-04 -1.74504751e-03
      -1.67813979e-03 2.68791988e-03 3.22707999e-03 1.34700222e-03
      -1.30581076e-03 1.62945047e-03 4.71540116e-04 -1.50525698e-03
      -2.26969877e-03 1.37914147e-03 3.10663274e-03 1.10440108e-03
      -6.49085559e-04 1.57039752e-03 6.03353721e-04 -6.23252534e-04
      -1.67803012e-03 3.46715155e-04 2.16454105e-03 1.30362669e-03
      5.44888375e-04 1.59469456e-03 1.50088966e-03 6.74270617e-04
      3.92917544e-04 -5.33521408e-04 1.15836284e-03 1.79462205e-03
      9.40436206e-04 1.79118814e-03 1.85584766e-03 1.23475969e-03
      -3.14520294e-04 -1.75870000e-03 7.30428437e-04 1.72385515e-03
      1.64191565e-03 8.58433836e-04 6.84407714e-04 1.14289112e-03
      4.03735437e-04 -1.12361833e-03 6.04287605e-04 1.45488209e-03
      2.21079006e-03 6.45597989e-04 -2.22265441e-03 -5.77125465e-04
      -5.09739097e-04 -7.85949407e-04 8.49975680e-04 1.24199409e-03
      2.02552532e-03 6.41331833e-04 -1.88441598e-03 -2.22588680e-03
      -6.21374114e-04 3.58767022e-04 1.06923038e-03 1.21035404e-03
      1.18953153e-03 8.04736104e-04 -1.63124460e-05 -3.97289434e-04
      9.57045530e-04 1.93548703e-03 1.16781075e-03 1.06432615e-03</_>
    <_>
      2.82625202e-04 5.56899584e-04 8.60978151e-04 7.12679292e-04
      1.51396880e-03 -1.30725361e-03 1.34300426e-04 7.75083026e-05
      8.36452891e-05 4.47623781e-04 6.29782735e-04 3.79070378e-04
      1.59465347e-03 -8.02925846e-04 2.86535942e-04 2.23748415e-04
      1.50102685e-04 2.59245920e-04 4.30877553e-04 -1.92002772e-04
      -8.91602976e-05 -2.53824634e-03 6.94511051e-04 4.48068226e-04
      5.41071058e-04 6.92461675e-04 1.18283648e-03 4.73641703e-04
      -2.25296989e-03 -3.21265240e-03 7.78115005e-04 3.38063604e-04
      5.61570050e-04 8.57169798e-04 1.04503194e-03 1.42303586e-04
      -2.84228101e-03 -1.81601464e-03 1.41614769e-03 7.38685427e-04
      5.02122915e-04 1.16077694e-03 1.19934336e-03 -5.24847535e-04
      -2.23180908e-03 -1.20288599e-03 1.85034238e-03 1.00786379e-03
      4.20897471e-04 1.52919232e-03 1.44747377e-03 -5.70491306e-04
      -3.15109268e-04 -1.07073004e-03 2.17979494e-03 1.23068877e-03
      -1.03367929e-05 1.51564914e-03 3.64200620e-04 -7.77297886e-04
      1.07200816e-03 5.41414738e-05 2.35635811e-03 1.15123880e-03
      -1.09584769e-04 1.21194671e-03 -1.28875568e-03 8.80635693e-04
      1.43438706e-03 -2.32865437e-04 2.32224725e-03 1.05112081e-03
      1.65939957e-04 4.34010202e-04 -2.15905858e-03 2.29387591e-03
      1.34668523e-03 3.54565826e-04 1.91406463e-03 9.67446598e-04
      2.99917097e-04 -1.24336767e-03 -2.51864828e-03 -1.03904377e-03
      2.19861366e-04 -5.64169372e-04 -1.56017067e-03 9.77468910e-04
      1.59407489e-03 -7.25615304e-04 -2.62444327e-03 -2.75732251e-03
      -2.18299381e-03 -2.71324161e-03 -2.44892319e-03 1.05341338e-03
      1.23646483e-03 4.18025360e-04 -1.31272871e-04 3.15688259e-04
      9.46686559e-05 -1.92670315e-03 -1.76258036e-04 9.67456202e-04
      1.00081391e-03 7.88119039e-04 3.08998075e-04 2.82891851e-04
      -9.99321812e-04 -2.28387024e-03 4.09508240e-04 6.83553051e-04
      1.09522953e-03 9.27869813e-04 1.55314244e-03 9.97499330e-04
      -3.77252145e-04 -7.09938584e-04 6.89926208e-04 5.40554640e-04
      6.99842640e-04 6.47471868e-04 1.66757987e-03 1.52221858e-03
      4.91194602e-04 1.16867945e-04 4.35398106e-04 3.39482329e-04</_>
    <_>
      7.60876224e-04 -3.83062325e-05 9.23766405e-04 -3.85918026e-03
      -4.20374190e-03 -4.40170011e-03 1.15866226e-03 2.99696950e-03
      -8.14682746e-04 3.28534428e-04 -4.97976504e-03 -4.48044529e-03
      -2.46607210e-03 -4.72597498e-03 3.02431872e-03 3.03872256e-03
      -2.52526224e-04 1.43697613e-03 -3.30344355e-03 -5.35036204e-03
      -3.47886863e-03 -2.80323904e-03 3.24855419e-03 3.04273795e-03
      2.26585637e-03 2.83964351e-03 -2.17739819e-03 7.28907995e-04
      3.96119757e-03 4.03271476e-03 3.11792572e-03 3.19115631e-03
      9.91609530e-04 2.24994868e-03 -3.50391446e-03 1.16433052e-03
      2.73473072e-03 2.54043564e-03 3.31248390e-03 2.15813378e-03
      -1.30769855e-03 1.67646073e-03 -2.13973387e-03 3.36959539e-03
      2.85822619e-03 1.81006687e-03 2.89877877e-03 2.43590237e-03
      -5.60544540e-05 1.07945455e-03 8.23567563e-04 4.18999605e-03
      1.11824926e-03 3.81218211e-04 2.61477404e-03 3.98095651e-03
      -1.99659588e-03 1.71130139e-03 -1.05176796e-03 -3.07086832e-03
      -4.37723566e-03 -3.55339679e-03 1.23112614e-03 1.39194576e-03
      -1.39253598e-03 2.50229402e-03 -3.97855788e-03 -4.23905207e-03
      -3.51864635e-03 -4.84199869e-03 -6.10459945e-04 -9.48197325e-04
      1.74819864e-03 2.13732151e-03 7.91903527e-04 1.84094149e-03
      -2.06055061e-04 -2.68892501e-03 -2.07555853e-03 -1.44991698e-03
      -1.23483164e-03 2.40548863e-03 4.55015618e-03 3.47847608e-03
      4.14978852e-03 -1.49901165e-03 -2.76171253e-03 -1.07669504e-03
      7.23672216e-04 3.62945744e-03 4.72797547e-03 3.45638534e-03
      3.79392155e-03 -2.19176011e-03 -2.06117705e-03 -1.06775807e-03
      4.32325481e-03 3.29178944e-03 3.30070732e-03 3.90437245e-03
      3.15447478e-03 -1.18907494e-03 -1.83247204e-03 9.45942957e-05
      4.05211374e-03 3.64479492e-03 -1.99167035e-03 9.46642889e-04
      -1.60057811e-04 -1.28952588e-03 -2.29137577e-03 1.46167353e-04
      2.56738858e-03 4.25473973e-03 6.37141347e-05 -2.83041410e-03
      -4.91212049e-05 -2.03255186e-04 -3.03162844e-03 4.32468631e-04
      -7.67840684e-05 3.14274477e-03 4.86909645e-03 2.00342829e-03
      1.93558482e-03 2.37434899e-04 -2.92678131e-03 1.19591993e-03</_>
    <_>
      -2.02142022e-04 -2.58563145e-04 -9.39855876e-04 -1.79762288e-03
      -1.57596311e-03 -6.30188209e-04 -2.54302693e-04 -3.05766036e-04
      -2.02142022e-04 -4.33231180e-04 -1.87874772e-03 -1.98589871e-03
      -1.25149463e-03 -1.04952930e-03 -2.48968310e-04 -1.87212805e-04
      -1.87212805e-04 -4.68279701e-04 -2.31888727e-03 -1.57013442e-03
      -9.38008830e-04 -1.27902383e-03 -3.43642110e-04 -1.79800889e-04
      -1.12762944e-04 -3.72495037e-04 -1.06108352e-03 9.69936664e-04
      2.62373534e-04 -1.73073926e-03 -2.95440870e-04 1.08389140e-05
      -9.67988453e-05 2.37819098e-04 3.69187241e-04 2.37630634e-03
      1.68869831e-03 -1.69375876e-03 -2.05610835e-04 -5.92297074e-05
      -8.44805560e-04 2.27860830e-04 7.18742318e-04 1.25280838e-03
      1.83371559e-03 -1.65802136e-03 -2.23025258e-04 -3.63992120e-04
      -1.01160328e-03 1.84695135e-04 2.16152970e-04 8.37530708e-04
      1.55769603e-03 -1.52547995e-03 -2.09087448e-05 -4.09337343e-04
      -1.13049941e-03 1.69713239e-04 2.14022744e-04 7.11762521e-04
      9.26930574e-04 -1.03298284e-03 2.24023228e-04 -7.03652913e-04
      -1.11234700e-03 1.69713239e-04 2.14022744e-04 -3.11504875e-04
      3.74435273e-04 -4.10329158e-05 2.89035554e-04 -7.17635208e-04
      -9.24319436e-04 2.36855791e-04 -7.48637394e-05 -1.86700141e-03
      6.85872859e-04 9.36364464e-04 3.11921263e-04 -5.89320669e-04
      -9.05450608e-04 2.65128590e-04 -1.28597498e-03 -2.10197503e-03
      1.97255006e-03 1.20180228e-03 3.25212168e-04 -3.55888042e-04
      -3.26140289e-04 1.35867100e-04 -2.11886037e-03 -1.23722630e-03
      2.72085587e-03 1.24544359e-03 4.54621215e-04 -2.64388800e-04
      3.80578451e-04 -1.77648806e-04 -2.40471633e-03 -5.66593895e-04
      2.11232062e-03 6.91322144e-04 3.45061475e-04 3.71042348e-04
      3.48841975e-04 -4.80004033e-04 -2.38365028e-03 -1.30885700e-03
      4.66669822e-04 -1.04797182e-04 2.22532282e-04 6.43059029e-04
      4.39233670e-04 -3.94447445e-04 -1.90379040e-03 -1.56706118e-03
      -2.00708891e-04 -8.67884490e-04 2.30307283e-04 6.79288292e-04
      4.60428389e-04 -1.23297141e-04 -1.03360554e-03 -1.11181778e-03
      -8.69088806e-04 -7.16849696e-04 5.39777626e-04 7.82376912e-04</_>
    <_>
      -2.55375315e-04 -2.19841590e-04 -9.22583218e-04 -1.64485478e-03
      -1.55032845e-03 -7.48567109e-04 -2.86509108e-04 -2.12419385e-04
      -1.52862631e-04 -2.81154236e-04 -2.84325285e-03 -3.71412467e-03
      -2.67535122e-03 -8.68779607e-04 -2.08228623e-04 -1.37161158e-04
      -2.45620497e-04 -3.06753675e-04 -3.11351265e-03 -2.08999845e-03
      -8.61059176e-04 -1.18821440e-03 -2.53839768e-04 -2.20074464e-04
      -2.27604411e-04 -3.99699602e-05 -1.56085342e-04 2.65641185e-03
      2.85713904e-04 -1.78938906e-03 -8.90988085e-05 -1.01968290e-05
      2.07008299e-04 4.18258511e-04 2.05586688e-03 3.62971355e-03
      1.48465962e-03 -1.74372329e-03 3.58279285e-05 2.16836546e-04
      -2.08107289e-04 3.33734875e-04 9.59209690e-04 1.31714751e-03
      1.37846137e-03 -1.18315360e-03 1.22596874e-04 1.23426638e-04
      -5.05167409e-04 2.43622009e-04 -5.83489658e-04 -3.42651998e-04
      7.84675882e-04 -3.41333187e-04 2.38980443e-04 1.03841674e-04
      -6.59259735e-04 1.98243724e-04 -1.52769592e-03 -2.53931619e-03
      6.18073333e-04 8.41095345e-04 2.97870720e-04 4.39535834e-05
      -6.56106859e-04 2.45623291e-04 -1.42082549e-03 -2.77475035e-03
      6.41863502e-04 5.81888598e-04 2.40646608e-04 1.02843864e-04
      -5.38787688e-04 2.65634997e-04 -6.79773162e-04 -1.15906110e-03
      6.85145322e-04 -9.25816887e-04 2.11601553e-04 1.34943024e-04
      -3.60789563e-04 1.46856604e-04 -7.00132223e-05 3.23577930e-04
      1.60262245e-03 -1.59321819e-03 1.09947519e-04 2.60645960e-04
      -2.06916913e-04 -1.73036693e-04 -2.34618492e-04 4.84992051e-04
      2.07127305e-03 -1.60949642e-03 3.03043544e-05 2.76499311e-04
      7.80339324e-05 -6.07288559e-04 -9.20516148e-04 5.09210186e-05
      1.77415414e-03 -1.26627903e-03 2.59356893e-04 4.75768669e-04
      2.74392019e-04 -7.91138096e-04 -2.60499306e-03 -1.00009190e-03
      9.20861843e-04 -4.78333182e-04 4.84957884e-04 6.17661979e-04
      3.59061203e-04 -6.25556917e-04 -3.31688579e-03 -2.56032916e-03
      -2.06749959e-04 5.21499969e-05 7.36200600e-04 6.78218435e-04
      3.20863503e-04 -2.57291686e-04 -2.42867111e-03 -2.68672546e-03
      -1.76836550e-03 3.44629574e-04 1.01523229e-03 7.19865086e-04</_>
    <_>
      -1.54414811e-04 -4.70496125e-05 -4.31979970e-05 -9.36745782e-05
      -5.63655398e-04 -4.95087705e-04 -3.11048207e-05 -8.27704935e-05
      -9.46483924e-05 -9.37275181e-05 -1.41723474e-04 -2.62144313e-04
      -7.99969421e-05 1.35925729e-04 -1.14576869e-04 -8.96602796e-05
      -1.00033685e-04 -9.46483924e-05 -5.64343718e-05 4.12068533e-04
      6.02743356e-04 -6.37175923e-04 -1.59505478e-04 -9.21148385e-05
      3.63456616e-06 2.11507881e-06 9.78389638e-04 2.10332172e-03
      -2.00696122e-05 -1.71231339e-03 4.97161345e-05 1.08224427e-04
      5.75894956e-04 3.77794902e-04 1.55798846e-03 2.15521781e-03
      -3.47625726e-04 -1.47152948e-03 2.65827548e-04 3.11311072e-04
      -7.78171816e-05 3.51402239e-04 8.03010829e-04 -3.48295172e-04
      -4.87074285e-04 -1.43671327e-03 2.75280065e-04 2.63783935e-04
      -4.44443431e-04 3.03052919e-04 -1.78914139e-04 -2.06218101e-03
      4.83494339e-04 -1.52317935e-03 2.96394865e-04 2.12172265e-04
      -7.67703576e-04 2.32904189e-04 -8.91702017e-04 -2.35809223e-03
      1.76918448e-03 -1.38945552e-03 3.24428634e-04 6.77876524e-05
      -7.19643955e-04 9.07649810e-05 -2.25101016e-03 -1.10486033e-03
      1.93034729e-03 -1.23099703e-03 3.24428634e-04 -4.57275337e-06
      -4.82466508e-04 -5.41860703e-04 -2.95689958e-03 -4.17520932e-05
      1.67613907e-03 -1.20016921e-03 2.55396153e-04 -2.28324661e-05
      -4.11009009e-04 -1.49099424e-03 -3.17094219e-03 -2.40219384e-03
      -1.55396192e-04 -1.59736490e-03 -2.01998209e-03 1.05827174e-04
      1.83018361e-04 -1.47707283e-03 -3.12533951e-03 -2.87092198e-03
      -3.62689112e-04 -1.64509076e-03 -1.87888485e-03 1.48434163e-04
      3.80883692e-04 -1.89661863e-04 -3.54352262e-04 -8.44504393e-05
      1.11773331e-03 -1.17681210e-03 2.05799312e-04 3.23493558e-04
      3.69693764e-04 2.75054801e-04 2.69715994e-04 3.96903866e-04
      1.06382824e-03 -7.28818472e-04 6.02337474e-04 5.08568657e-04
      4.69185412e-04 3.82918894e-04 4.63800126e-04 5.21863753e-04
      9.65652056e-04 4.73069900e-04 8.01332644e-04 7.06687511e-04
      5.19867637e-04 4.46797087e-04 4.86601319e-04 4.66222235e-04
      2.66119081e-04 7.24681537e-04 9.72757931e-04 7.75201945e-04</_>
    <_>
      -1.58951661e-04 -2.25584678e-04 -6.77805510e-04 -1.10923953e-03
      -1.57929747e-03 -1.77559978e-03 -1.93417014e-04 -2.32040926e-04
      -1.63547040e-04 -2.27882367e-04 -2.44478602e-03 -2.67058681e-03
      -1.92314060e-03 -1.97777734e-03 -1.95170316e-04 -1.97468005e-04
      -2.52612575e-04 -3.14650242e-04 -2.50198063e-03 -1.71869423e-03
      -4.99859045e-04 -9.63031605e-04 -1.85979559e-04 -1.85979559e-04
      -1.18730022e-04 -1.47138737e-04 -1.20332954e-03 1.35964551e-03
      2.36171391e-03 1.06384931e-03 2.17373545e-05 -3.96531541e-05
      1.85024328e-04 1.60432217e-04 -7.07547530e-04 2.23051594e-03
      3.29229911e-03 1.34684553e-03 2.50236248e-04 6.63777610e-05
      -1.39587384e-03 1.28474858e-04 -1.51420571e-03 9.30394046e-04
      3.20228189e-03 1.37167855e-03 2.04282420e-04 -9.86671657e-05
      -1.58004533e-03 -6.34586104e-05 -2.39940034e-03 -4.84075921e-04
      2.21907347e-03 1.05633319e-03 1.44645222e-04 -2.87228584e-04
      -1.89159322e-03 -6.57562996e-05 -2.39940034e-03 -1.53404416e-03
      9.57884768e-04 1.20268232e-04 1.28664135e-04 -6.56861113e-04
      -2.00058823e-03 -3.81840109e-05 -2.10922700e-03 -1.26090983e-03
      9.78250988e-04 -7.93046318e-04 3.50032060e-05 -8.89699964e-04
      -1.38412509e-03 1.26705330e-04 1.01327976e-04 7.65007804e-04
      1.51148334e-03 -1.12129934e-03 -9.93690192e-05 -7.57625385e-04
      -1.35376549e-03 2.73315905e-04 3.34706390e-04 9.88779706e-04
      2.17219489e-03 -1.10446569e-03 -2.17657405e-04 -5.18643355e-04
      -5.72904712e-04 3.30424082e-04 3.60083737e-04 1.01415697e-03
      2.32312432e-03 -1.11750187e-03 -4.32690540e-05 -4.29890904e-04
      3.91011854e-04 2.43656221e-04 2.66735879e-04 1.03692361e-03
      1.80520187e-03 -8.72429518e-04 2.27180673e-04 3.34935990e-04
      3.74285708e-04 9.09024675e-05 -1.30154181e-03 1.19029923e-04
      5.86469891e-04 -4.14781709e-04 5.11519262e-04 5.26955992e-04
      4.27025021e-04 1.41344106e-04 -2.13694992e-03 -1.58407306e-03
      -2.69148208e-04 2.18711531e-04 7.04494654e-04 5.73115307e-04
      4.70886647e-04 4.36631613e-04 -1.21611624e-03 -1.74276379e-03
      -1.01560552e-03 6.93739858e-04 8.76774604e-04 7.56797148e-04</_>
    <_>
      -4.94992273e-05 4.18616037e-05 3.31287942e-04 2.78254185e-04
      2.68805103e-04 1.90651495e-04 -4.59961075e-06 8.04855372e-05
      -7.25371456e-06 2.28158591e-04 4.40507283e-05 -4.38059302e-04
      -4.15543705e-04 -1.79878218e-04 6.81907986e-05 1.57776976e-05
      -6.54796313e-05 3.20622261e-04 6.42315543e-04 -4.28401952e-04
      -5.68525458e-04 -2.98683561e-04 3.95668285e-05 -3.69482550e-05
      -1.08750974e-05 2.84264359e-04 6.65061467e-04 -1.46766528e-04
      -6.10411516e-04 -3.80397047e-04 3.52690804e-05 8.04855372e-05
      1.75941896e-04 -3.48600315e-06 5.09119382e-05 -3.59534402e-04
      -7.36397051e-04 -3.37802921e-04 9.25132772e-05 5.31441357e-04
      6.37270859e-04 -7.06520586e-05 -2.30595251e-04 -2.26194607e-04
      -9.04457818e-04 -2.97744227e-05 1.76773538e-04 9.34555195e-04
      9.13281110e-04 -7.06520586e-05 -4.30532004e-04 -1.41276873e-03
      -1.60033570e-03 6.47408306e-04 1.66132755e-04 1.13133260e-03
      7.91567552e-04 -9.91834386e-05 -1.39627862e-03 -4.18276293e-03
      -9.88587504e-04 1.78929011e-03 -1.56900569e-06 1.47356617e-03
      7.79446156e-04 -1.54731515e-06 -1.33959309e-03 -2.40284181e-03
      -3.84107290e-04 -4.92873311e-04 -1.64944533e-04 1.49206887e-03
      8.12324637e-04 -9.97174066e-05 -1.32524321e-04 2.06977455e-03
      -2.84611451e-04 -3.68193933e-03 -4.31916182e-04 1.26179389e-03
      9.69297194e-04 -1.24819344e-04 2.07334477e-03 3.73467756e-03
      -6.20257400e-04 -4.34416160e-03 -8.28787219e-04 1.03971898e-03
      -4.16251169e-06 -5.62801579e-05 3.35915969e-03 2.58860202e-03
      -1.32827356e-03 -4.32789279e-03 -1.05013268e-03 8.27288721e-04
      -5.16666565e-04 1.50141874e-04 3.36358976e-03 1.23001041e-03
      -1.38741208e-03 -4.01219726e-03 -7.88404723e-04 1.00101759e-04
      -2.03956544e-04 4.14932612e-04 1.05794531e-03 1.31862087e-03
      -7.02083402e-04 -1.50490401e-03 -3.11572670e-08 -1.84365315e-04
      -2.65612092e-04 5.40531240e-04 -1.67747698e-04 -3.47055320e-04
      -3.15552868e-04 1.09686691e-03 6.64382591e-04 -2.09904494e-04
      -2.17283043e-04 2.76601291e-04 -9.94594884e-04 -1.75607263e-03
      -1.07300247e-03 1.33790832e-03 3.39950027e-04 -3.14908597e-04</_>
    <_>
      -3.74175979e-05 5.85806192e-05 3.98732460e-04 8.13772727e-04
      5.40553243e-04 -1.26445093e-05 6.00015592e-05 8.35256869e-05
      -2.50125231e-06 1.14633382e-04 7.99879199e-04 9.07443522e-04
      6.91584253e-04 3.27507325e-04 -9.83113387e-06 -2.50125231e-06
      -2.50125231e-06 1.28326370e-04 1.23397692e-03 1.37579255e-03
      8.24175309e-04 -1.55178379e-04 -4.88896285e-06 9.97128063e-06
      1.00848229e-05 1.40798904e-04 1.16973592e-03 7.46853126e-04
      -3.12802906e-04 -4.15772811e-04 8.48596901e-05 1.24991375e-05
      2.13727166e-04 9.97128063e-06 5.09073085e-04 -3.27964808e-04
      -1.45772670e-03 -2.87325762e-04 1.84639954e-04 1.58440700e-04
      2.38638502e-04 9.97128063e-06 -1.01793623e-04 -1.00754306e-03
      -1.63143571e-03 -2.99798296e-04 2.20837086e-04 3.39185062e-04
      1.40025499e-04 2.52785685e-06 -2.19895024e-04 -1.74220733e-03
      -8.77283164e-04 -4.21962031e-04 1.06143380e-04 3.61628889e-04
      1.16387846e-05 -1.47733053e-05 -6.43492735e-04 -1.87977240e-03
      3.00928485e-04 -6.43819105e-04 -4.59679395e-05 4.43960715e-04
      3.40825973e-05 -7.43206983e-05 -1.52986730e-03 -5.27353375e-04
      7.99709116e-04 -1.19484391e-03 -8.46059993e-05 4.27766470e-04
      5.02768416e-05 -4.33228357e-04 -1.77121465e-03 1.17682444e-03
      4.78132133e-04 -1.82070385e-03 -1.19522345e-04 3.44240776e-04
      8.38857959e-05 -1.00896403e-03 -1.08183187e-03 4.73161926e-05
      -1.43062812e-03 -2.18966976e-03 -1.42861484e-03 2.65744195e-04
      7.80105765e-05 -9.46461165e-04 -5.16372558e-04 -8.55511578e-04
      -2.08338629e-03 -2.21057911e-03 -1.48017763e-03 1.93610729e-04
      -1.31567314e-04 -8.73590398e-05 1.20325270e-03 4.00604244e-04
      -7.09048356e-04 -1.46223418e-03 -1.85711237e-04 -3.94912895e-05
      -7.71625782e-05 3.19590268e-04 1.53403275e-03 1.15655025e-03
      4.27750783e-04 -7.34353554e-04 1.09246066e-04 -1.19522345e-04
      -5.85540147e-05 3.58934281e-04 1.31628220e-03 1.26025605e-03
      6.36365206e-04 2.67399359e-04 2.14527186e-04 -6.73048344e-05
      -4.60814845e-05 2.06822951e-04 6.77802425e-04 7.22803583e-04
      5.62770001e-04 4.79357841e-04 6.73580435e-05 -9.97199313e-05</_>
    <_>
      5.68778160e-05 6.52159288e-05 7.41228694e-04 1.51942158e-03
      9.05071152e-04 -8.72583245e-04 -2.97999395e-05 2.36068547e-04
      6.26589754e-05 3.20491963e-04 6.96851232e-04 3.48853529e-04
      4.39234049e-04 -2.44606083e-04 -1.48013114e-05 1.48496765e-04
      -5.97048202e-05 3.34636454e-04 4.07500338e-04 -6.54152827e-04
      2.80857552e-04 8.13861785e-04 2.91957462e-04 1.86594829e-04
      -1.13945891e-04 3.28643189e-04 -1.32188189e-03 -1.07007066e-03
      1.26939977e-03 2.64135492e-03 5.64686023e-04 2.03629883e-04
      3.14158737e-04 -1.51749948e-04 -2.20851810e-03 -8.14940839e-04
      1.05624471e-03 2.70024268e-03 5.82650362e-04 6.17084268e-04
      4.93176303e-05 -1.60421681e-04 -2.45621917e-03 -8.64206231e-04
      1.00679346e-03 2.58701690e-03 4.21556208e-04 9.92016401e-04
      2.00799317e-04 -2.37188971e-04 -2.50881002e-03 -1.81493233e-03
      4.55849076e-04 1.95832248e-03 1.34186092e-04 9.24279972e-04
      2.98611179e-04 -2.13543812e-04 -2.46903463e-03 -2.45169317e-03
      -1.78721661e-04 4.14250564e-04 -1.62031938e-04 1.02081138e-03
      3.81197606e-04 -1.23203223e-04 -2.08545220e-03 -8.83562607e-04
      2.19242807e-04 -1.31324935e-03 -4.12500754e-04 8.15458538e-04
      7.31346256e-04 -2.85467249e-05 2.41597663e-04 2.33328668e-03
      4.59639763e-04 -2.36976449e-03 -5.76904975e-04 6.60181453e-04
      7.90075399e-04 1.14183371e-04 1.74815825e-03 2.81051965e-03
      3.43737847e-05 -2.59254291e-03 -6.91396766e-04 5.15494787e-04
      4.69578896e-04 3.66356719e-04 2.53031426e-03 2.10554455e-03
      -6.20080915e-04 -2.59627309e-03 -6.58135104e-04 4.69138467e-04
      9.00740706e-05 6.09049865e-04 2.70142476e-03 9.46728629e-04
      -1.09200843e-03 -2.40043039e-03 -4.60736803e-04 7.40997712e-05
      8.28675911e-05 7.16391543e-04 1.24348665e-03 7.40364834e-04
      -1.04792661e-03 -1.35683757e-03 -1.30270506e-04 -1.86649006e-04
      -2.13402418e-05 6.87744527e-04 3.18691862e-04 3.25802044e-04
      2.20059810e-04 1.21427712e-03 3.60354956e-04 -1.72716638e-04
      -6.70689915e-05 6.16779842e-04 4.77733061e-04 2.31349622e-04
      7.04315433e-04 1.97442039e-03 3.70895694e-04 -1.40091317e-04</_>
    <_>
      1.94549750e-04 2.26478194e-04 1.04519015e-03 1.31894613e-03
      6.75921183e-05 -4.64106706e-04 1.18747652e-04 2.21635026e-04
      1.90477454e-04 2.84047477e-04 1.80534692e-03 2.16524047e-03
      1.28174806e-03 3.72069277e-04 5.85720954e-05 1.74670509e-04
      1.93776330e-04 3.24834866e-04 2.15034513e-03 1.83845113e-03
      1.20275980e-03 3.68505804e-04 1.36522067e-04 1.90358856e-04
      2.18162633e-04 2.65537412e-04 1.72658789e-03 5.55763778e-04
      1.93915388e-04 1.25082806e-04 2.34666324e-04 1.96283290e-04
      2.44957831e-04 2.44762457e-04 8.10828875e-04 -3.63165309e-04
      -6.30697061e-04 3.41445353e-04 3.04169225e-04 6.36162222e-05
      -2.08000620e-06 2.24506584e-04 2.84052192e-04 -9.91181587e-04
      -7.08297419e-04 -9.36919387e-05 1.87633501e-04 -1.88687518e-05
      6.35032120e-05 7.60787807e-05 -6.32937736e-05 -8.20042042e-04
      3.31317337e-04 -7.67501770e-04 1.14713133e-04 -1.11805428e-04
      6.02680811e-05 -8.39807326e-05 -4.82386211e-04 2.46187061e-04
      1.55189983e-03 -1.28646975e-03 8.93384349e-05 -2.06683602e-04
      8.15696621e-05 -4.60895593e-04 -1.42399780e-03 1.21193076e-03
      1.75703247e-03 -6.47500041e-04 8.97326827e-05 -3.75989854e-04
      1.98961701e-04 -1.20660162e-03 -1.98838860e-03 1.05579686e-03
      1.11733330e-03 -8.81330852e-05 1.12089205e-04 -4.52955661e-04
      -6.17414189e-05 -1.99017278e-03 -2.72507616e-03 -1.79690181e-03
      -6.80741156e-04 -1.60480005e-04 -1.72010472e-03 -4.24833386e-04
      1.48138701e-04 -1.70439598e-03 -2.87256064e-03 -2.75101629e-03
      -9.94860777e-04 -4.87561338e-04 -1.88623951e-03 -4.35164082e-04
      1.23301943e-04 -1.21286663e-04 1.51688393e-04 -8.74647230e-05
      2.90498836e-04 -6.28756592e-04 -5.21860260e-04 -3.60603008e-04
      1.18483680e-04 7.94953201e-04 2.09293305e-03 1.71111769e-03
      5.22478833e-04 -7.58346054e-04 -1.42864854e-04 -8.40042849e-05
      1.72414730e-04 8.99565581e-04 2.36735935e-03 2.07240065e-03
      6.24589738e-04 -3.13504308e-04 7.74290093e-05 1.26356841e-04
      3.60781502e-04 7.88434059e-04 1.65944104e-03 1.49696902e-03
      7.30876418e-05 -1.07008054e-04 1.04973151e-04 1.65407677e-04</_>
    <_>
      3.68692010e-04 3.15741578e-04 4.98719630e-04 1.30705722e-03
      6.77725999e-04 -1.43006188e-03 1.63926830e-04 2.06736207e-04
      2.20570073e-04 3.08554649e-04 8.30060686e-04 1.08271104e-03
      8.94323050e-04 -2.13178550e-03 -5.09386067e-04 1.09650238e-04
      2.32731487e-04 2.51065881e-04 9.76428681e-04 -3.36263445e-04
      9.05128079e-04 2.28582343e-04 -2.87552801e-04 1.89787272e-04
      1.96432578e-04 2.51385238e-04 -1.76012178e-03 -2.76430021e-03
      2.59917183e-03 4.52030497e-03 1.76395304e-04 -4.98309746e-05
      1.47338767e-04 5.71529345e-05 -3.96321481e-03 -2.67757988e-03
      2.63823080e-03 5.99454390e-03 6.15694444e-04 -2.45622126e-04
      -1.23963936e-03 1.12657057e-04 -4.29763831e-03 -2.66486709e-03
      2.92031048e-03 5.73385227e-03 4.38780291e-04 -3.98261560e-04
      -1.73279934e-03 -9.75925832e-06 -4.28514788e-03 -2.28323019e-03
      2.89278617e-03 3.76010593e-03 4.01959114e-05 -7.15852773e-04
      -1.43451884e-03 -1.70745552e-05 -3.08886473e-03 4.74445318e-04
      5.92883618e-04 -1.67439342e-03 -1.21984966e-04 -1.09048618e-03
      -9.85603547e-04 -1.68069542e-04 -2.73696636e-03 7.77555921e-04
      5.68975578e-04 -2.40758341e-03 -4.51248226e-04 -1.29842944e-03
      -7.38674076e-04 2.95691261e-05 4.20003598e-05 1.43911783e-03
      1.48310198e-03 -1.87446669e-04 -6.44916086e-04 -1.08318345e-03
      -8.65785871e-04 1.07947060e-04 1.02317346e-04 1.86825375e-04
      6.03510882e-04 1.86414443e-04 -4.13768546e-04 -9.29565169e-04
      2.20889720e-04 1.84515360e-04 2.36827080e-04 2.27702141e-04
      2.75372644e-04 1.85727913e-04 -3.57823723e-07 -6.26488822e-04
      6.00304338e-04 3.77655611e-04 5.08747529e-04 1.46676699e-04
      -4.26854094e-05 4.33880254e-04 2.67908181e-04 -3.83949155e-05
      2.21473252e-04 3.48799193e-04 1.07319711e-03 6.13216136e-04
      2.69435288e-04 7.16532290e-04 4.14167560e-04 -3.54246877e-05
      2.25041993e-04 1.90025225e-04 6.06684946e-04 1.03061297e-03
      6.90579764e-04 9.79912933e-04 2.45599746e-04 1.39253883e-04
      1.35673574e-04 1.81693278e-04 -1.22623984e-04 6.76567841e-04
      6.88806467e-04 4.23363206e-04 1.96113237e-04 2.67884752e-04</_>
    <_>
      -2.79132073e-04 -3.38134356e-04 -4.73152410e-04 -8.38613079e-04
      -6.15067373e-04 -5.44481853e-04 -2.83653557e-04 -1.87775968e-05
      -2.96642305e-04 -2.50861922e-04 -9.01561056e-04 -1.31207600e-03
      -8.49714095e-04 -7.89844606e-04 -2.55441904e-04 8.12722647e-06
      -3.54621559e-04 -2.21399649e-04 -9.58232791e-04 -1.22596195e-03
      -1.26041676e-04 3.49008449e-04 -1.23562568e-04 1.89048587e-05
      -4.12658119e-04 -2.15549488e-04 -9.89582972e-04 -6.30955619e-04
      1.47508038e-03 1.84167898e-03 1.28926358e-05 2.96813141e-06
      -5.36879001e-04 -2.62097368e-04 -1.06673874e-03 -2.78109976e-04
      2.10598507e-03 2.02801987e-03 8.91084273e-05 1.74616325e-05
      -7.61479314e-04 -3.12392978e-04 -1.15077046e-03 1.78256756e-04
      1.86005794e-03 1.91805966e-03 6.29890710e-05 -3.41676678e-05
      -6.18473743e-04 -3.85388354e-04 -1.13355613e-03 3.91650392e-04
      7.31201901e-04 1.59130653e-03 -2.26889824e-05 -7.91159109e-05
      -3.70342488e-04 -3.42296815e-04 -7.09400629e-04 1.83358512e-04
      -6.01742067e-04 8.92308424e-04 -1.68354265e-04 -1.27320731e-04
      -2.80851440e-04 -1.74442335e-04 3.84914223e-04 -3.18753271e-04
      -6.55599812e-04 3.29095696e-04 -3.81705380e-04 -2.09181497e-04
      -9.15789205e-05 3.20103165e-04 1.57425751e-03 -1.36317947e-04
      -1.12827292e-04 1.92528081e-04 -5.37579064e-04 -2.22255287e-04
      3.90742462e-05 1.05138693e-03 1.92815869e-03 1.42432144e-03
      1.31459010e-03 4.49035782e-04 6.28370501e-04 -2.05677570e-04
      9.82438723e-05 1.16382132e-03 2.12301244e-03 2.04821071e-03
      1.67729706e-03 5.45357179e-04 8.12673825e-04 -1.37458759e-04
      1.87306738e-04 5.11122635e-04 6.43623353e-04 6.08448056e-04
      5.81672182e-04 3.96492338e-04 -1.23454665e-04 -4.90326638e-05
      6.32934971e-05 8.19790293e-05 -4.53670829e-04 -2.60932138e-04
      -8.58033891e-05 3.98627773e-04 -2.11759994e-04 -1.09516986e-04
      -3.54216754e-05 -1.81178970e-04 -1.16781436e-03 -1.19233865e-03
      -7.47277925e-04 -8.11251739e-05 -3.15533602e-04 -1.80126342e-04
      -1.15979616e-04 -2.13078485e-04 -1.02868560e-03 -1.19136844e-03
      -8.39688058e-04 -2.20138987e-04 -2.18585832e-04 -1.01826387e-04</_></support_vectors>
  <uncompressed_sv_total>81</uncompressed_sv_total>
  <uncompressed_support_vectors>
    <_>
      0. 0. 0. 0. 0. 0. 0. 0. 0. 0. 0. 0. 0. 0. 0. 0. 0. 0. 0. 0. 0. 0.
      0. 0. 6. 4. 3. 10. 18. 9. 9. 10. 34. 20. 18. 32. 49. 18. 19. 24.
      38. 20. 18. 34. 60. 19. 19. 30. 42. 19. 18. 38. 71. 19. 20. 35.
      47. 19. 18. 39. 78. 20. 21. 37. 49. 19. 18. 35. 77. 20. 21. 38.
      48. 19. 18. 27. 70. 20. 22. 37. 41. 20. 19. 26. 62. 22. 23. 35.
      32. 20. 20. 27. 56. 24. 26. 33. 25. 20. 21. 27. 49. 27. 30. 33.
      22. 21. 22. 27. 41. 32. 35. 34. 23. 22. 23. 27. 35. 37. 40. 36.
      25. 25. 26. 29. 34. 43. 46. 40.</_>
    <_>
      4. 4. 4. 5. 5. 5. 4. 3. 4. 4. 4. 4. 10. 13. 4. 4. 4. 4. 4. 12. 37.
      30. 4. 4. 4. 4. 16. 41. 43. 32. 4. 4. 4. 4. 21. 41. 40. 32. 4. 5.
      3. 4. 16. 16. 33. 32. 4. 4. 4. 4. 4. 4. 30. 31. 4. 4. 4. 4. 4. 4.
      32. 32. 4. 4. 4. 4. 4. 4. 32. 33. 4. 4. 4. 4. 4. 4. 31. 32. 4. 4.
      4. 4. 4. 4. 30. 32. 4. 5. 4. 4. 4. 4. 33. 32. 4. 4. 4. 4. 4. 4.
      34. 32. 4. 4. 4. 4. 4. 4. 33. 33. 4. 4. 4. 4. 4. 4. 23. 22. 4. 4.
      4. 4. 4. 4. 4. 6. 6. 4.</_>
    <_>
      4. 4. 4. 4. 4. 3. 4. 4. 4. 4. 4. 9. 26. 7. 4. 4. 4. 4. 8. 33. 39.
      9. 4. 4. 4. 7. 37. 43. 40. 8. 4. 4. 4. 8. 39. 38. 40. 8. 4. 4. 3.
      7. 20. 21. 40. 8. 4. 4. 4. 4. 4. 20. 38. 7. 4. 4. 4. 4. 4. 21. 39.
      8. 4. 3. 4. 4. 4. 21. 40. 7. 4. 4. 4. 4. 4. 21. 39. 7. 4. 4. 4. 4.
      4. 22. 38. 7. 4. 4. 3. 3. 4. 22. 38. 7. 4. 4. 4. 3. 3. 23. 39. 7.
      4. 4. 3. 3. 4. 24. 40. 6. 4. 4. 4. 4. 4. 21. 37. 6. 4. 4. 4. 3. 4.
      4. 5. 3. 3. 4.</_>
    <_>
      18. 18. 17. 17. 29. 21. 18. 19. 18. 17. 17. 24. 73. 19. 19. 20.
      20. 17. 17. 64. 95. 19. 18. 23. 22. 17. 20. 105. 95. 19. 20. 26.
      33. 18. 21. 94. 94. 19. 20. 32. 49. 18. 19. 45. 91. 19. 21. 38.
      53. 19. 17. 25. 92. 19. 21. 43. 56. 19. 17. 25. 90. 19. 21. 45.
      61. 19. 17. 24. 88. 18. 21. 46. 53. 19. 16. 24. 90. 19. 21. 43.
      46. 18. 16. 24. 90. 18. 20. 37. 31. 18. 17. 24. 89. 18. 20. 32.
      21. 18. 16. 25. 89. 18. 18. 26. 18. 17. 17. 24. 87. 18. 18. 23.
      17. 17. 16. 23. 79. 18. 18. 20. 16. 16. 16. 19. 32. 19. 18. 20.</_>
    <_>
      18. 16. 17. 17. 35. 21. 18. 19. 18. 17. 17. 24. 85. 20. 18. 20.
      20. 18. 17. 65. 105. 19. 18. 23. 23. 17. 18. 95. 106. 20. 18. 25.
      31. 18. 18. 82. 99. 20. 19. 30. 39. 18. 17. 35. 92. 20. 19. 37.
      44. 19. 17. 19. 92. 20. 20. 42. 51. 19. 16. 19. 90. 20. 20. 45.
      52. 19. 16. 18. 90. 20. 19. 46. 51. 19. 16. 18. 90. 20. 20. 43.
      44. 18. 16. 18. 89. 19. 19. 37. 33. 18. 16. 18. 89. 20. 19. 31.
      23. 18. 16. 18. 89. 19. 18. 26. 18. 16. 16. 18. 89. 19. 17. 22.
      17. 17. 16. 17. 86. 19. 17. 20. 17. 17. 16. 16. 44. 18. 18. 19.</_>
    <_>
      19. 17. 18. 20. 22. 21. 18. 18. 19. 19. 21. 26. 50. 33. 20. 19.
      19. 19. 29. 70. 112. 56. 20. 20. 18. 22. 78. 116. 123. 61. 20. 20.
      18. 23. 91. 108. 119. 65. 20. 20. 18. 20. 50. 52. 111. 67. 20. 20.
      18. 18. 20. 31. 108. 70. 21. 20. 18. 18. 19. 30. 103. 74. 21. 20.
      18. 18. 18. 28. 101. 77. 21. 19. 18. 18. 18. 27. 101. 80. 21. 20.
      18. 18. 18. 26. 99. 84. 22. 20. 18. 18. 18. 25. 95. 87. 23. 19.
      18. 18. 18. 23. 92. 89. 23. 18. 18. 18. 18. 23. 89. 92. 24. 19.
      18. 17. 18. 20. 71. 75. 23. 17. 18. 17. 19. 21. 28. 30. 23. 20.</_>
    <_>
      20. 20. 23. 26. 26. 20. 20. 21. 21. 21. 23. 51. 84. 25. 21. 21.
      21. 22. 48. 111. 119. 28. 22. 22. 21. 36. 113. 134. 120. 29. 21.
      21. 21. 43. 123. 118. 120. 29. 21. 21. 21. 36. 68. 87. 120. 30.
      21. 22. 21. 22. 24. 80. 118. 31. 21. 21. 21. 21. 22. 80. 119. 30.
      21. 21. 21. 20. 22. 77. 120. 31. 21. 21. 20. 20. 21. 76. 121. 30.
      21. 21. 20. 20. 22. 76. 122. 30. 20. 21. 20. 20. 21. 74. 121. 31.
      20. 21. 20. 20. 21. 72. 121. 31. 20. 21. 21. 20. 21. 70. 120. 31.
      20. 20. 20. 20. 20. 64. 105. 29. 20. 20. 20. 20. 21. 31. 41. 25.
      22. 21.</_>
    <_>
      21. 21. 21. 23. 24. 23. 19. 20. 21. 21. 22. 25. 61. 59. 22. 22.
      21. 21. 29. 69. 125. 89. 23. 22. 20. 21. 70. 127. 136. 89. 23. 22.
      21. 22. 83. 115. 127. 89. 22. 21. 21. 21. 51. 48. 118. 89. 23. 21.
      21. 21. 22. 27. 116. 87. 23. 22. 21. 21. 21. 28. 117. 86. 23. 22.
      21. 21. 21. 28. 118. 84. 23. 22. 21. 20. 21. 28. 119. 83. 22. 21.
      21. 20. 20. 28. 119. 82. 22. 21. 21. 20. 20. 29. 120. 81. 22. 21.
      20. 20. 20. 30. 119. 78. 21. 21. 20. 20. 20. 30. 118. 76. 22. 21.
      20. 20. 20. 28. 95. 61. 21. 21. 20. 19. 20. 22. 30. 26. 23. 23.</_>
    <_>
      5. 5. 5. 5. 4. 5. 5. 7. 5. 6. 5. 12. 12. 5. 5. 5. 5. 5. 44. 81.
      80. 30. 4. 6. 6. 6. 81. 80. 79. 69. 7. 5. 7. 6. 49. 11. 37. 79.
      15. 6. 11. 6. 6. 5. 20. 78. 20. 8. 15. 6. 5. 5. 26. 77. 15. 10.
      18. 7. 5. 5. 50. 69. 7. 12. 18. 7. 5. 22. 75. 42. 6. 12. 15. 6.
      10. 66. 67. 10. 6. 11. 11. 5. 40. 74. 23. 5. 6. 9. 8. 6. 66. 49.
      5. 5. 5. 6. 6. 13. 75. 54. 42. 46. 17. 6. 5. 20. 76. 76. 97. 76.
      25. 5. 4. 13. 45. 42. 39. 36. 14. 4. 5. 5. 5. 5. 5. 5. 5. 6.</_>
    <_>
      8. 9. 22. 39. 37. 17. 9. 9. 8. 12. 40. 42. 42. 30. 9. 8. 8. 13.
      38. 29. 37. 37. 11. 8. 9. 13. 17. 8. 25. 39. 13. 9. 21. 8. 8. 7.
      20. 39. 13. 17. 37. 8. 7. 7. 22. 39. 12. 25. 42. 8. 7. 7. 28. 36.
      10. 28. 46. 8. 7. 10. 37. 30. 8. 34. 47. 8. 7. 23. 40. 19. 7. 35.
      43. 7. 11. 37. 33. 9. 7. 32. 40. 7. 26. 39. 17. 6. 7. 27. 24. 9.
      35. 30. 7. 6. 6. 24. 7. 13. 38. 16. 6. 6. 6. 11. 6. 17. 38. 24.
      18. 15. 8. 6. 5. 18. 38. 38. 38. 37. 13. 6. 5. 16. 34. 37. 37. 36.
      13. 5.</_>
    <_>
      7. 10. 47. 61. 61. 38. 8. 8. 6. 11. 51. 60. 61. 54. 14. 7. 7. 11.
      43. 27. 40. 59. 22. 7. 8. 9. 15. 7. 17. 56. 27. 8. 15. 6. 6. 6.
      13. 53. 29. 11. 26. 6. 6. 6. 14. 54. 29. 20. 30. 6. 6. 6. 19. 56.
      24. 22. 40. 6. 6. 6. 33. 56. 17. 27. 40. 6. 5. 12. 50. 47. 11. 30.
      48. 6. 6. 31. 57. 29. 7. 26. 46. 6. 13. 51. 48. 11. 7. 25. 46. 6.
      27. 57. 28. 6. 6. 21. 34. 7. 41. 50. 12. 6. 6. 8. 7. 10. 49. 39.
      9. 11. 10. 6. 5. 13. 52. 55. 54. 57. 31. 5. 5. 14. 53. 59. 59. 59.
      31. 5.</_>
    <_>
      10. 10. 10. 13. 12. 10. 10. 10. 9. 10. 30. 61. 58. 19. 10. 10. 9.
      11. 64. 68. 68. 51. 10. 10. 10. 10. 56. 32. 53. 66. 11. 10. 10.
      10. 17. 8. 27. 67. 16. 11. 15. 9. 9. 9. 24. 67. 17. 13. 18. 9. 8.
      8. 33. 65. 13. 14. 21. 8. 8. 9. 53. 56. 10. 15. 23. 8. 8. 28. 65.
      34. 9. 16. 20. 8. 13. 59. 57. 11. 9. 14. 17. 8. 37. 64. 24. 8. 8.
      11. 12. 9. 58. 46. 8. 8. 8. 9. 7. 15. 64. 34. 18. 17. 10. 8. 7.
      21. 64. 64. 64. 64. 20. 7. 6. 21. 62. 63. 63. 63. 20. 7. 6. 10.
      16. 15. 15. 15. 9. 7.</_>
    <_>
      8. 8. 9. 16. 14. 8. 8. 7. 7. 8. 36. 50. 47. 17. 7. 7. 8. 8. 45.
      50. 52. 35. 7. 8. 8. 8. 28. 17. 44. 44. 7. 7. 9. 8. 9. 8. 31. 45.
      8. 8. 14. 8. 8. 7. 32. 42. 8. 9. 16. 8. 9. 14. 43. 33. 7. 9. 17.
      8. 23. 48. 47. 15. 7. 9. 19. 7. 23. 50. 46. 18. 8. 9. 17. 7. 13.
      24. 44. 40. 8. 9. 16. 7. 7. 7. 26. 46. 10. 8. 14. 7. 7. 7. 19. 47.
      12. 8. 9. 9. 10. 7. 23. 47. 10. 7. 7. 12. 33. 20. 39. 43. 9. 6. 7.
      12. 47. 47. 46. 31. 7. 7. 6. 9. 36. 44. 37. 12. 7. 8.</_>
    <_>
      15. 15. 18. 24. 20. 15. 15. 14. 16. 16. 65. 99. 88. 30. 16. 15.
      16. 17. 93. 110. 114. 79. 16. 15. 16. 17. 59. 43. 92. 106. 20. 15.
      20. 16. 17. 16. 58. 109. 23. 17. 28. 16. 16. 16. 60. 106. 21. 21.
      32. 16. 25. 45. 95. 87. 17. 22. 38. 17. 46. 112. 109. 40. 15. 23.
      40. 17. 42. 105. 113. 69. 17. 23. 35. 16. 18. 29. 79. 109. 27. 21.
      31. 17. 16. 16. 37. 114. 41. 19. 19. 15. 16. 16. 33. 114. 44. 17.
      0. 1. 2. 3. 15. 54. 23. 12. 0. 0. 0. 0. 0. 0. 0. 0. 0. 0. 0. 0. 0.
      0. 0. 0. 0. 0. 0. 0. 0. 0. 0. 0.</_>
    <_>
      7. 7. 8. 10. 9. 7. 7. 7. 7. 7. 27. 51. 48. 16. 6. 7. 7. 7. 40. 54.
      56. 43. 7. 7. 7. 7. 28. 19. 41. 54. 9. 7. 9. 6. 8. 7. 24. 55. 10.
      7. 18. 6. 7. 6. 25. 53. 8. 9. 20. 6. 9. 18. 44. 42. 7. 9. 23. 6.
      15. 54. 53. 17. 7. 11. 30. 6. 15. 44. 54. 38. 7. 11. 27. 7. 8. 13.
      32. 54. 13. 10. 22. 7. 7. 7. 12. 54. 19. 8. 17. 7. 7. 7. 11. 53.
      19. 7. 8. 8. 21. 9. 26. 54. 14. 7. 7. 8. 48. 47. 52. 47. 8. 7. 7.
      7. 46. 54. 51. 21. 6. 6. 6. 7. 12. 21. 14. 7. 6. 7.</_>
    <_>
      11. 11. 10. 11. 11. 10. 10. 11. 12. 12. 14. 29. 26. 12. 11. 11.
      12. 11. 59. 93. 91. 44. 11. 11. 11. 11. 64. 67. 86. 82. 12. 11.
      12. 11. 19. 11. 46. 90. 15. 12. 20. 11. 11. 11. 38. 86. 14. 12.
      23. 11. 12. 23. 68. 71. 11. 12. 28. 11. 25. 87. 85. 28. 11. 12.
      30. 11. 22. 65. 85. 68. 11. 12. 24. 10. 11. 12. 37. 86. 25. 12.
      24. 10. 10. 10. 16. 84. 33. 11. 14. 11. 15. 10. 24. 84. 30. 11.
      11. 11. 66. 50. 71. 82. 16. 12. 11. 11. 75. 85. 84. 48. 11. 11.
      10. 10. 23. 40. 30. 11. 10. 11. 10. 10. 10. 10. 10. 10. 11. 12.</_>
    <_>
      9. 9. 23. 46. 44. 17. 10. 9. 9. 9. 36. 58. 58. 43. 9. 9. 9. 9. 32.
      38. 51. 56. 13. 9. 10. 9. 13. 11. 26. 58. 17. 9. 25. 8. 9. 9. 18.
      56. 18. 10. 37. 9. 9. 9. 24. 55. 15. 13. 35. 9. 11. 29. 46. 46.
      10. 13. 46. 9. 14. 55. 56. 25. 9. 14. 48. 8. 13. 43. 56. 44. 10.
      15. 42. 9. 9. 17. 35. 56. 18. 14. 32. 9. 9. 10. 13. 54. 25. 12.
      30. 9. 9. 9. 12. 52. 26. 12. 17. 10. 12. 8. 16. 54. 24. 10. 9. 10.
      38. 26. 39. 55. 17. 10. 8. 9. 48. 55. 56. 44. 11. 9. 8. 9. 39. 53.
      47. 20. 9. 8.</_>
    <_>
      18. 51. 96. 103. 82. 32. 17. 17. 19. 60. 94. 101. 102. 50. 18. 18.
      19. 44. 52. 70. 105. 63. 20. 24. 21. 24. 24. 41. 97. 69. 22. 43.
      29. 18. 18. 37. 94. 68. 23. 58. 38. 19. 26. 50. 94. 60. 22. 67.
      44. 24. 58. 84. 93. 47. 20. 67. 50. 28. 84. 106. 82. 32. 19. 66.
      48. 25. 78. 102. 90. 41. 20. 62. 46. 20. 42. 71. 101. 67. 23. 55.
      43. 17. 20. 35. 88. 87. 30. 45. 41. 18. 17. 23. 74. 96. 37. 37.
      28. 24. 21. 24. 71. 98. 42. 30. 21. 43. 41. 37. 79. 97. 42. 22.
      20. 60. 83. 70. 96. 91. 38. 19. 19. 59. 106. 106. 105. 80. 31. 17.</_>
    <_>
      14. 13. 32. 44. 45. 30. 14. 13. 13. 15. 43. 54. 62. 46. 15. 13.
      14. 16. 46. 54. 74. 61. 17. 14. 17. 15. 43. 48. 79. 72. 18. 16.
      22. 15. 36. 40. 79. 75. 19. 18. 27. 15. 33. 39. 75. 65. 17. 22.
      36. 13. 35. 51. 76. 54. 16. 26. 42. 14. 38. 59. 82. 51. 15. 29.
      40. 14. 35. 59. 83. 54. 15. 28. 39. 13. 30. 50. 80. 59. 16. 26.
      31. 17. 23. 35. 77. 69. 16. 24. 24. 26. 28. 31. 75. 69. 17. 21.
      19. 35. 43. 43. 73. 60. 16. 17. 15. 36. 54. 51. 64. 48. 15. 15.
      13. 32. 52. 49. 54. 35. 14. 13. 17. 28. 47. 47. 42. 25. 14. 14.</_>
    <_>
      22. 18. 27. 42. 47. 38. 20. 21. 19. 19. 41. 59. 68. 60. 24. 21.
      19. 20. 45. 62. 81. 84. 29. 20. 21. 20. 41. 61. 88. 102. 35. 21.
      27. 20. 35. 50. 81. 101. 39. 22. 34. 20. 35. 44. 71. 86. 37. 26.
      49. 20. 41. 55. 71. 71. 31. 31. 60. 19. 46. 68. 86. 63. 25. 38.
      52. 18. 42. 69. 98. 59. 20. 46. 41. 18. 35. 61. 101. 62. 19. 46.
      31. 22. 27. 44. 96. 72. 20. 34. 26. 37. 32. 41. 87. 70. 21. 26.
      22. 54. 49. 52. 77. 59. 21. 22. 19. 58. 59. 58. 68. 47. 19. 20.
      18. 54. 61. 57. 57. 34. 17. 20. 20. 43. 57. 54. 44. 26. 18. 22.</_>
    <_>
      8. 6. 6. 6. 6. 7. 5. 6. 7. 7. 8. 7. 7. 7. 7. 7. 7. 7. 8. 7. 23.
      35. 8. 7. 7. 7. 7. 7. 46. 58. 8. 7. 7. 7. 7. 11. 61. 58. 8. 8. 18.
      7. 7. 28. 63. 58. 8. 9. 26. 7. 8. 50. 49. 59. 8. 11. 33. 7. 18.
      58. 31. 58. 8. 13. 33. 7. 42. 37. 28. 56. 8. 14. 29. 15. 57. 16.
      29. 55. 9. 14. 25. 29. 59. 51. 55. 61. 45. 12. 12. 28. 55. 55. 57.
      60. 41. 10. 7. 9. 11. 10. 30. 53. 8. 8. 7. 7. 7. 7. 28. 51. 7. 8.
      6. 7. 6. 6. 18. 26. 7. 7. 6. 7. 7. 7. 7. 8. 8. 8.</_>
    <_>
      12. 11. 12. 23. 72. 108. 50. 12. 14. 11. 13. 34. 86. 115. 51. 14.
      22. 12. 16. 47. 97. 116. 49. 18. 41. 13. 22. 61. 99. 114. 48. 25.
      66. 14. 32. 71. 94. 110. 46. 32. 72. 16. 46. 76. 85. 107. 45. 39.
      76. 23. 59. 74. 73. 103. 43. 51. 72. 34. 67. 66. 62. 102. 41. 51.
      75. 46. 66. 56. 58. 102. 42. 51. 74. 63. 76. 57. 64. 108. 53. 47.
      72. 78. 94. 73. 79. 115. 75. 45. 64. 84. 104. 92. 99. 115. 88. 42.
      53. 76. 95. 93. 108. 110. 81. 34. 37. 54. 67. 67. 96. 100. 57. 25.
      20. 30. 38. 38. 78. 94. 36. 16. 13. 16. 19. 22. 67. 89. 27. 13.</_>
    <_>
      11. 12. 12. 29. 108. 87. 17. 12. 11. 11. 12. 49. 119. 86. 17. 12.
      12. 11. 14. 74. 122. 83. 16. 13. 15. 12. 19. 96. 119. 80. 15. 17.
      25. 12. 33. 106. 110. 76. 15. 28. 34. 13. 57. 94. 101. 75. 15. 44.
      34. 16. 85. 69. 101. 73. 16. 54. 36. 28. 101. 44. 101. 70. 15. 66.
      36. 52. 86. 29. 101. 67. 15. 72. 33. 75. 53. 32. 104. 67. 19. 71.
      34. 97. 73. 72. 113. 83. 44. 67. 32. 105. 108. 111. 117. 108. 68.
      64. 24. 78. 87. 94. 114. 107. 61. 54. 15. 27. 31. 48. 107. 74. 30.
      29. 12. 12. 13. 34. 103. 51. 14. 12. 11. 11. 11. 32. 100. 46. 11.
      11.</_>
    <_>
      13. 12. 12. 40. 106. 77. 18. 12. 11. 11. 13. 58. 114. 79. 18. 12.
      12. 12. 18. 78. 118. 80. 18. 15. 20. 12. 27. 94. 115. 79. 19. 21.
      37. 13. 43. 99. 107. 79. 19. 31. 45. 15. 63. 88. 99. 78. 20. 39.
      49. 22. 82. 68. 91. 77. 20. 45. 55. 38. 88. 46. 88. 77. 21. 49.
      54. 56. 72. 32. 88. 79. 22. 54. 58. 75. 55. 35. 91. 83. 28. 48.
      60. 93. 84. 75. 105. 97. 57. 49. 53. 96. 103. 104. 112. 110. 81.
      47. 30. 70. 80. 87. 107. 107. 76. 38. 15. 25. 30. 42. 92. 86. 43.
      21. 12. 12. 13. 24. 85. 75. 21. 14. 13. 11. 12. 22. 82. 72. 18.
      12.</_>
    <_>
      8. 8. 8. 16. 72. 74. 17. 8. 8. 8. 8. 26. 84. 74. 17. 8. 8. 8. 8.
      40. 91. 74. 17. 8. 15. 8. 11. 58. 93. 73. 17. 11. 48. 8. 18. 71.
      84. 72. 17. 22. 64. 8. 31. 74. 69. 72. 17. 27. 64. 10. 50. 65. 60.
      71. 17. 30. 71. 18. 70. 48. 56. 71. 17. 38. 72. 34. 83. 30. 55.
      70. 17. 40. 67. 45. 52. 15. 56. 70. 17. 38. 61. 65. 54. 31. 65.
      75. 31. 36. 62. 75. 90. 89. 91. 90. 72. 43. 39. 74. 92. 92. 92.
      92. 74. 33. 14. 35. 44. 47. 74. 79. 45. 16. 8. 8. 8. 13. 58. 65.
      15. 8. 8. 8. 8. 17. 60. 66. 15. 7.</_>
    <_>
      10. 9. 9. 26. 93. 62. 11. 9. 10. 9. 9. 40. 99. 64. 11. 9. 10. 10.
      10. 59. 101. 64. 11. 10. 13. 10. 14. 76. 100. 64. 11. 15. 32. 10.
      23. 86. 90. 64. 12. 32. 41. 10. 39. 81. 80. 65. 12. 40. 51. 12.
      61. 63. 74. 65. 12. 41. 59. 18. 78. 42. 73. 66. 12. 47. 56. 32.
      80. 25. 70. 66. 12. 46. 51. 55. 66. 15. 69. 67. 13. 41. 55. 73.
      66. 44. 80. 71. 30. 38. 44. 76. 96. 96. 96. 93. 74. 53. 18. 69.
      90. 92. 96. 96. 81. 47. 9. 17. 24. 33. 73. 80. 34. 21. 8. 8. 8.
      11. 66. 70. 20. 11. 8. 8. 8. 10. 64. 71. 20. 9.</_>
    <_>
      8. 9. 12. 16. 14. 13. 9. 9. 9. 9. 31. 52. 53. 51. 14. 10. 9. 9.
      34. 55. 56. 56. 14. 10. 10. 9. 36. 44. 27. 28. 13. 11. 22. 10. 39.
      36. 10. 10. 11. 13. 41. 10. 41. 35. 10. 10. 12. 16. 44. 11. 43.
      43. 29. 14. 12. 17. 44. 11. 46. 56. 56. 39. 12. 19. 36. 11. 46.
      51. 56. 56. 16. 20. 32. 10. 14. 12. 32. 57. 22. 18. 28. 10. 10. 9.
      17. 57. 24. 16. 22. 10. 9. 9. 15. 56. 23. 14. 12. 9. 9. 9. 21. 56.
      18. 12. 9. 11. 29. 18. 42. 52. 12. 13. 8. 12. 53. 53. 55. 37. 9.
      10. 8. 11. 51. 54. 47. 14. 9. 10.</_>
    <_>
      63. 91. 88. 68. 54. 45. 39. 30. 66. 88. 74. 44. 24. 18. 16. 14.
      69. 86. 69. 36. 17. 13. 12. 12. 72. 87. 69. 38. 21. 17. 14. 12.
      74. 89. 78. 55. 41. 32. 23. 16. 78. 97. 95. 84. 75. 63. 46. 30.
      81. 103. 108. 105. 103. 93. 74. 49. 78. 97. 102. 105. 107. 105.
      91. 66. 61. 72. 75. 82. 93. 102. 100. 78. 34. 39. 41. 50. 69. 90.
      100. 85. 17. 18. 19. 26. 48. 76. 94. 88. 11. 11. 13. 19. 39. 68.
      91. 88. 11. 11. 12. 18. 37. 67. 90. 87. 12. 12. 13. 20. 40. 70.
      91. 85. 18. 16. 16. 27. 49. 78. 94. 82. 34. 32. 34. 46. 66. 87.
      93. 74.</_>
    <_>
      89. 119. 114. 92. 80. 77. 73. 58. 87. 116. 102. 66. 46. 42. 38.
      32. 86. 114. 95. 52. 28. 23. 20. 19. 86. 114. 95. 53. 28. 22. 19.
      16. 85. 113. 104. 69. 49. 40. 30. 22. 83. 116. 117. 99. 86. 75.
      56. 37. 81. 115. 126. 122. 115. 107. 91. 61. 73. 107. 119. 121.
      123. 123. 115. 88. 56. 78. 87. 90. 102. 114. 123. 107. 34. 42. 47.
      51. 64. 91. 118. 117. 19. 20. 21. 24. 36. 68. 107. 121. 15. 15.
      15. 17. 26. 53. 99. 120. 15. 16. 15. 17. 23. 50. 97. 120. 21. 25.
      23. 23. 32. 60. 105. 121. 33. 44. 46. 43. 52. 84. 114. 116. 49.
      75. 85. 85. 94. 111. 120. 102.</_>
    <_>
      114. 115. 95. 80. 72. 56. 40. 22. 109. 99. 65. 45. 37. 31. 24. 17.
      107. 85. 48. 26. 20. 18. 15. 14. 103. 82. 41. 22. 18. 16. 14. 14.
      103. 87. 53. 36. 31. 25. 18. 16. 108. 101. 80. 67. 58. 43. 28. 20.
      112. 117. 106. 99. 89. 68. 45. 27. 111. 119. 116. 117. 112. 94.
      65. 38. 93. 102. 107. 114. 121. 113. 84. 51. 60. 65. 74. 89. 111.
      115. 97. 62. 30. 33. 39. 60. 92. 111. 104. 71. 17. 18. 23. 42. 76.
      106. 107. 76. 14. 14. 19. 34. 69. 104. 109. 79. 17. 16. 19. 34.
      68. 105. 110. 80. 28. 25. 26. 42. 76. 107. 110. 76. 51. 46. 43.
      61. 90. 112. 105. 70.</_>
    <_>
      15. 53. 123. 122. 104. 71. 26. 17. 16. 56. 119. 89. 60. 38. 18.
      24. 18. 57. 110. 56. 28. 19. 16. 43. 26. 57. 103. 43. 18. 15. 16.
      66. 44. 59. 102. 45. 23. 17. 18. 88. 59. 62. 106. 66. 48. 29. 22.
      107. 60. 64. 118. 103. 88. 50. 27. 114. 73. 65. 124. 126. 117. 73.
      34. 126. 68. 60. 110. 117. 124. 91. 42. 126. 70. 47. 74. 82. 114.
      101. 46. 136. 62. 27. 33. 45. 96. 105. 49. 117. 60. 16. 16. 27.
      85. 107. 48. 107. 50. 15. 15. 23. 83. 106. 45. 89. 40. 18. 19. 28.
      91. 103. 38. 58. 24. 29. 36. 47. 107. 95. 30. 32. 17. 49. 76. 87.
      120. 78. 25. 20.</_>
    <_>
      7. 7. 19. 49. 48. 45. 21. 9. 8. 8. 25. 71. 65. 64. 33. 8. 8. 7.
      30. 76. 57. 58. 33. 8. 11. 7. 34. 73. 34. 34. 22. 10. 19. 8. 40.
      70. 17. 14. 11. 11. 30. 8. 44. 72. 26. 15. 8. 14. 35. 8. 49. 75.
      48. 36. 10. 16. 34. 8. 51. 72. 67. 61. 16. 18. 34. 9. 40. 56. 63.
      79. 28. 18. 37. 8. 27. 34. 41. 80. 38. 16. 28. 8. 13. 14. 19. 77.
      42. 14. 16. 8. 8. 8. 14. 74. 39. 11. 11. 9. 12. 10. 24. 75. 31.
      10. 9. 12. 29. 25. 42. 72. 22. 10. 8. 15. 49. 46. 59. 58. 14. 10.
      8. 16. 65. 62. 62. 38. 10. 9.</_>
    <_>
      4. 4. 9. 15. 21. 23. 4. 4. 4. 4. 30. 35. 35. 31. 5. 5. 5. 5. 32.
      35. 34. 27. 5. 5. 5. 5. 32. 17. 8. 6. 5. 6. 9. 6. 33. 11. 4. 5. 5.
      9. 28. 6. 34. 10. 4. 4. 5. 12. 32. 7. 34. 22. 16. 6. 5. 15. 37. 7.
      34. 35. 34. 18. 5. 19. 39. 7. 31. 31. 34. 29. 6. 22. 32. 6. 6. 6.
      26. 33. 8. 20. 30. 5. 4. 4. 16. 34. 10. 17. 18. 4. 4. 4. 14. 35.
      9. 15. 5. 5. 5. 4. 19. 33. 7. 6. 4. 7. 24. 15. 31. 29. 5. 4. 4. 7.
      34. 34. 34. 18. 4. 4. 4. 4. 24. 31. 24. 6. 4. 3.</_>
    <_>
      7. 7. 7. 7. 7. 7. 7. 7. 6. 6. 36. 51. 51. 49. 8. 7. 7. 7. 51. 70.
      69. 68. 9. 7. 7. 7. 53. 57. 46. 45. 9. 8. 9. 7. 54. 35. 8. 7. 8.
      9. 18. 7. 56. 33. 7. 7. 8. 10. 20. 7. 57. 46. 29. 9. 8. 12. 20. 8.
      58. 70. 69. 44. 8. 13. 24. 7. 51. 54. 67. 68. 12. 13. 22. 7. 8. 7.
      30. 69. 22. 12. 16. 7. 6. 7. 14. 70. 26. 11. 12. 6. 7. 7. 15. 69.
      24. 9. 7. 7. 18. 7. 34. 68. 15. 8. 6. 7. 59. 57. 66. 55. 7. 7. 7.
      7. 60. 67. 65. 23. 7. 7. 6. 6. 15. 25. 16. 7. 6. 6.</_>
    <_>
      7. 8. 8. 8. 8. 7. 7. 8. 7. 7. 39. 60. 57. 53. 12. 7. 7. 7. 45. 69.
      70. 69. 13. 8. 7. 7. 48. 58. 46. 47. 11. 8. 9. 7. 50. 41. 7. 7. 7.
      9. 14. 7. 52. 39. 7. 7. 8. 9. 19. 7. 54. 46. 23. 8. 7. 11. 27. 8.
      57. 68. 69. 40. 8. 12. 35. 7. 56. 64. 69. 66. 11. 11. 21. 7. 10.
      9. 36. 68. 20. 11. 14. 7. 7. 7. 15. 69. 25. 10. 13. 7. 6. 7. 13.
      68. 23. 8. 7. 6. 9. 6. 25. 68. 16. 7. 6. 6. 52. 36. 59. 62. 7. 9.
      6. 7. 64. 67. 68. 34. 6. 8. 6. 7. 42. 53. 36. 7. 6. 7.</_>
    <_>
      33. 62. 75. 58. 42. 42. 48. 49. 35. 63. 72. 46. 18. 10. 12. 13.
      37. 64. 71. 44. 17. 8. 8. 8. 39. 67. 71. 44. 15. 8. 8. 8. 41. 69.
      72. 47. 21. 12. 9. 8. 43. 71. 81. 72. 60. 48. 29. 14. 44. 72. 86.
      85. 86. 84. 65. 36. 46. 73. 86. 86. 87. 88. 82. 58. 40. 61. 70.
      74. 80. 85. 86. 71. 19. 26. 27. 31. 44. 65. 81. 77. 9. 9. 9. 9.
      16. 41. 69. 79. 8. 9. 8. 8. 11. 30. 60. 78. 8. 10. 10. 10. 10. 27.
      56. 76. 10. 13. 16. 17. 15. 29. 56. 76. 9. 13. 22. 24. 23. 34. 59.
      76. 10. 13. 19. 21. 24. 40. 64. 73.</_>
    <_>
      8. 6. 12. 49. 56. 56. 41. 7. 8. 6. 15. 54. 49. 49. 43. 8. 16. 6.
      18. 56. 35. 30. 29. 8. 37. 7. 22. 57. 24. 14. 13. 8. 78. 7. 27.
      60. 26. 9. 6. 9. 108. 7. 32. 65. 41. 22. 7. 12. 104. 8. 36. 66.
      54. 44. 10. 16. 87. 8. 33. 56. 61. 63. 19. 20. 72. 7. 22. 39. 49.
      68. 30. 22. 56. 7. 14. 23. 30. 67. 35. 26. 38. 6. 8. 10. 15. 62.
      35. 17. 22. 6. 6. 6. 15. 58. 32. 9. 12. 8. 7. 8. 23. 55. 26. 7. 9.
      16. 14. 16. 33. 51. 20. 6. 7. 24. 31. 31. 43. 43. 14. 6. 7. 29.
      48. 45. 47. 34. 9. 6.</_>
    <_>
      10. 35. 98. 86. 60. 31. 11. 11. 10. 37. 89. 40. 16. 11. 10. 13.
      16. 39. 85. 29. 10. 9. 10. 25. 37. 40. 83. 28. 10. 10. 10. 44. 60.
      41. 82. 30. 14. 11. 11. 53. 63. 42. 86. 55. 41. 18. 12. 57. 67.
      45. 99. 99. 81. 38. 13. 64. 73. 47. 105. 110. 104. 59. 17. 72. 74.
      47. 99. 103. 109. 73. 22. 72. 69. 35. 50. 64. 95. 83. 27. 72. 60.
      13. 14. 28. 76. 89. 31. 67. 55. 10. 10. 16. 66. 91. 33. 57. 51.
      10. 10. 14. 61. 91. 34. 53. 34. 10. 10. 13. 61. 91. 33. 46. 15.
      11. 11. 14. 66. 90. 30. 30. 11. 21. 22. 23. 82. 86. 25. 14.</_>
    <_>
      128. 79. 106. 65. 66. 59. 51. 52. 40. 37. 42. 60. 66. 59. 50. 53.
      56. 72. 126. 88. 66. 60. 52. 53. 156. 144. 228. 111. 66. 59. 51.
      52. 203. 174. 249. 112. 66. 60. 50. 52. 220. 184. 250. 113. 66.
      60. 50. 53. 226. 182. 250. 109. 66. 60. 51. 53. 228. 181. 251.
      115. 64. 60. 51. 52. 217. 186. 194. 97. 43. 58. 51. 52. 160. 117.
      65. 84. 34. 57. 50. 51. 57. 28. 45. 58. 29. 52. 49. 51. 16. 18.
      29. 22. 22. 45. 47. 48. 46. 24. 10. 16. 18. 38. 47. 50. 60. 17.
      18. 31. 26. 44. 46. 50. 31. 23. 31. 29. 39. 50. 45. 48. 33. 31.
      20. 14. 30. 44. 46. 42.</_>
    <_>
      153. 188. 160. 177. 224. 209. 145. 136. 150. 222. 219. 225. 220.
      210. 144. 133. 134. 211. 222. 224. 212. 202. 140. 131. 66. 176.
      199. 210. 210. 203. 142. 131. 27. 73. 96. 178. 210. 203. 139. 130.
      33. 43. 70. 173. 207. 193. 140. 127. 36. 38. 70. 172. 178. 154.
      136. 125. 41. 38. 79. 122. 136. 166. 129. 121. 40. 58. 102. 107.
      107. 127. 120. 118. 44. 92. 100. 98. 68. 96. 108. 115. 81. 94. 96.
      93. 71. 91. 104. 111. 92. 91. 106. 91. 90. 86. 100. 106. 88. 91.
      118. 96. 130. 89. 97. 102. 85. 86. 103. 95. 155. 127. 99. 98. 74.
      76. 85. 92. 145. 104. 93. 93. 79. 82. 83. 84. 89. 84. 88. 91.</_>
    <_>
      128. 87. 98. 68. 67. 58. 52. 54. 44. 44. 51. 69. 68. 58. 52. 53.
      78. 87. 165. 80. 66. 59. 52. 53. 178. 160. 241. 84. 66. 58. 51.
      53. 213. 193. 248. 86. 66. 58. 50. 53. 226. 202. 250. 84. 65. 58.
      52. 53. 224. 197. 249. 85. 65. 58. 52. 53. 229. 200. 244. 91. 61.
      58. 52. 53. 220. 189. 174. 81. 46. 57. 51. 52. 157. 94. 69. 74.
      40. 56. 51. 53. 46. 26. 54. 46. 31. 53. 49. 50. 20. 19. 30. 19.
      25. 46. 46. 50. 53. 20. 12. 18. 21. 42. 48. 50. 54. 15. 24. 30.
      29. 45. 47. 50. 30. 28. 29. 27. 41. 48. 46. 48. 36. 29. 23. 15.
      31. 45. 46. 44.</_>
    <_>
      212. 201. 167. 140. 179. 175. 135. 124. 191. 199. 189. 194. 220.
      200. 139. 122. 157. 182. 172. 216. 223. 201. 138. 124. 129. 103.
      125. 204. 218. 194. 134. 133. 117. 37. 67. 134. 206. 194. 134.
      146. 110. 28. 38. 75. 195. 195. 134. 152. 110. 30. 37. 69. 198.
      183. 131. 151. 104. 41. 38. 75. 164. 152. 129. 149. 126. 51. 43.
      90. 121. 147. 125. 147. 158. 62. 61. 99. 100. 117. 118. 143. 161.
      80. 83. 96. 80. 91. 112. 137. 164. 94. 90. 96. 80. 87. 107. 124.
      151. 94. 87. 107. 91. 87. 103. 108. 145. 89. 84. 106. 112. 98.
      100. 93. 135. 81. 76. 88. 120. 126. 96. 87. 104. 75. 77. 84. 112.
      106. 91. 86.</_>
    <_>
      242. 249. 237. 98. 57. 57. 64. 102. 228. 213. 156. 74. 58. 57. 63.
      71. 109. 68. 46. 67. 58. 57. 62. 63. 39. 45. 119. 93. 58. 57. 62.
      69. 48. 118. 218. 100. 57. 56. 62. 104. 141. 186. 231. 98. 58. 56.
      62. 112. 180. 211. 231. 95. 58. 56. 62. 114. 179. 218. 228. 87.
      57. 56. 61. 120. 177. 138. 158. 65. 56. 56. 62. 120. 149. 38. 40.
      58. 54. 55. 61. 117. 71. 12. 21. 33. 49. 53. 61. 114. 23. 13. 24.
      16. 43. 55. 60. 108. 28. 28. 25. 28. 44. 54. 59. 104. 19. 26. 32.
      27. 50. 51. 58. 99. 29. 34. 23. 20. 39. 46. 57. 100. 38. 19. 14.
      35. 27. 44. 56. 97.</_>
    <_>
      220. 217. 155. 84. 61. 56. 60. 64. 118. 77. 50. 62. 61. 56. 60.
      63. 40. 40. 70. 87. 61. 56. 60. 61. 39. 83. 186. 116. 60. 55. 60.
      63. 84. 157. 228. 115. 61. 55. 59. 66. 163. 194. 232. 113. 61. 56.
      59. 68. 180. 210. 230. 112. 61. 56. 60. 68. 182. 215. 230. 109.
      59. 55. 59. 69. 183. 173. 189. 76. 55. 55. 59. 70. 162. 64. 76.
      66. 52. 54. 58. 69. 82. 21. 23. 56. 47. 52. 58. 67. 22. 12. 18.
      26. 42. 52. 58. 67. 14. 16. 25. 15. 34. 53. 57. 65. 15. 31. 24.
      31. 39. 53. 57. 63. 10. 32. 32. 27. 49. 48. 56. 61. 13. 34. 30.
      15. 40. 42. 55. 60.</_>
    <_>
      39. 32. 101. 248. 248. 251. 241. 126. 37. 40. 187. 249. 248. 252.
      218. 52. 30. 91. 242. 234. 253. 250. 117. 68. 42. 183. 216. 238.
      253. 189. 58. 142. 92. 220. 177. 240. 232. 81. 151. 76. 174. 129.
      181. 231. 132. 113. 124. 108. 128. 97. 169. 169. 78. 173. 100.
      171. 54. 100. 144. 81. 170. 89. 214. 174. 71. 78. 94. 110. 128.
      181. 236. 182. 48. 68. 63. 152. 128. 251. 234. 209. 34. 52. 101.
      108. 232. 253. 245. 204. 39. 49. 107. 159. 251. 252. 249. 150. 35.
      76. 94. 212. 253. 253. 225. 71. 38. 88. 113. 232. 253. 251. 115.
      47. 77. 51. 154. 242. 253. 175. 49. 28. 52. 72. 188. 244. 223. 62.
      32. 29.</_>
    <_>
      82. 53. 35. 30. 21. 13. 24. 38. 87. 54. 36. 34. 16. 27. 33. 18.
      90. 55. 44. 39. 20. 31. 21. 15. 92. 56. 49. 38. 29. 31. 19. 21.
      102. 57. 51. 27. 13. 35. 8. 20. 113. 58. 50. 34. 26. 17. 14. 55.
      122. 59. 53. 44. 52. 28. 24. 136. 124. 60. 54. 48. 76. 138. 93.
      169. 124. 61. 55. 55. 154. 211. 195. 169. 121. 61. 55. 62. 167.
      222. 202. 170. 117. 61. 55. 63. 169. 219. 185. 162. 105. 62. 55.
      64. 170. 208. 139. 89. 65. 62. 56. 65. 155. 137. 53. 38. 66. 62.
      57. 65. 68. 45. 38. 39. 100. 63. 57. 65. 80. 79. 103. 113. 110.
      64. 57. 64. 162. 207. 232. 220.</_>
    <_>
      89. 30. 18. 8. 7. 8. 8. 7. 94. 28. 18. 8. 8. 7. 8. 8. 81. 32. 18.
      9. 8. 8. 8. 8. 50. 48. 18. 8. 8. 8. 8. 8. 62. 57. 17. 8. 8. 8. 8.
      8. 119. 41. 16. 8. 8. 8. 8. 8. 145. 29. 16. 8. 9. 8. 7. 8. 114.
      28. 16. 9. 9. 8. 8. 13. 92. 28. 16. 9. 8. 8. 9. 21. 90. 28. 17. 9.
      8. 8. 16. 24. 91. 30. 16. 9. 8. 11. 22. 45. 95. 30. 17. 11. 9. 18.
      31. 95. 98. 31. 19. 17. 14. 24. 73. 122. 101. 32. 25. 20. 20. 51.
      124. 129. 103. 33. 31. 20. 27. 134. 135. 127. 105. 36. 28. 23. 74.
      187. 136. 117.</_>
    <_>
      0. 0. 0. 0. 1. 1. 1. 2. 0. 0. 0. 0. 1. 8. 63. 70. 0. 0. 1. 16. 70.
      198. 229. 106. 2. 4. 56. 141. 142. 233. 231. 103. 50. 12. 75. 149.
      145. 235. 232. 105. 60. 12. 78. 149. 142. 236. 236. 107. 59. 12.
      84. 155. 140. 233. 232. 110. 59. 13. 86. 147. 140. 233. 228. 105.
      61. 13. 82. 143. 142. 236. 230. 101. 62. 13. 76. 139. 143. 238.
      233. 103. 62. 13. 76. 134. 135. 225. 234. 104. 56. 16. 61. 104.
      67. 131. 192. 88. 29. 30. 55. 83. 26. 38. 120. 62. 21. 28. 20. 16.
      15. 24. 86. 70. 42. 32. 33. 22. 15. 19. 35. 46. 28. 21. 22. 27.
      31. 34. 33. 30.</_>
    <_>
      55. 49. 43. 48. 50. 62. 54. 48. 31. 34. 36. 43. 49. 62. 56. 48.
      29. 47. 83. 115. 124. 62. 56. 49. 59. 98. 136. 177. 163. 62. 56.
      48. 134. 148. 161. 202. 165. 61. 56. 47. 146. 167. 164. 206. 162.
      61. 55. 48. 157. 173. 164. 207. 162. 61. 55. 49. 146. 80. 159.
      208. 163. 54. 54. 49. 45. 45. 131. 174. 111. 35. 53. 49. 10. 18.
      125. 53. 70. 28. 50. 48. 20. 9. 37. 17. 41. 13. 44. 47. 7. 8. 29.
      13. 17. 13. 34. 45. 6. 22. 51. 8. 15. 20. 34. 44. 6. 38. 30. 14.
      33. 25. 46. 42. 19. 27. 23. 28. 17. 30. 44. 44. 18. 29. 30. 18. 9.
      22. 38. 45.</_>
    <_>
      191. 188. 196. 203. 228. 220. 154. 149. 166. 158. 184. 218. 233.
      225. 155. 147. 142. 111. 150. 205. 230. 224. 151. 146. 123. 67.
      106. 169. 226. 221. 149. 144. 113. 35. 70. 133. 223. 221. 151.
      143. 106. 30. 45. 102. 217. 215. 153. 143. 104. 36. 41. 92. 205.
      201. 151. 141. 115. 42. 44. 98. 187. 190. 149. 141. 130. 50. 53.
      102. 161. 175. 146. 137. 145. 61. 68. 104. 131. 155. 139. 135.
      155. 73. 82. 107. 107. 137. 130. 134. 155. 86. 92. 105. 95. 118.
      121. 130. 151. 93. 94. 107. 89. 102. 114. 128. 147. 94. 94. 111.
      93. 96. 110. 124. 138. 89. 91. 112. 106. 99. 106. 121. 124. 84.
      87. 109. 118. 111. 105. 118.</_>
    <_>
      41. 42. 47. 61. 77. 72. 61. 61. 56. 83. 135. 143. 78. 72. 62. 61.
      139. 175. 231. 185. 77. 71. 61. 60. 191. 230. 253. 184. 77. 71.
      60. 60. 222. 234. 253. 182. 76. 71. 60. 61. 242. 236. 254. 180.
      76. 71. 61. 62. 248. 233. 254. 176. 75. 70. 61. 61. 251. 236. 249.
      136. 63. 70. 60. 61. 250. 212. 151. 91. 44. 67. 60. 61. 229. 98.
      61. 83. 40. 65. 59. 60. 75. 27. 53. 67. 41. 60. 58. 57. 26. 19.
      50. 23. 38. 56. 56. 56. 26. 17. 25. 15. 34. 58. 56. 58. 47. 10.
      13. 21. 26. 54. 56. 58. 37. 13. 36. 29. 30. 51. 56. 56. 25. 32.
      29. 33. 45. 53. 55. 51.</_>
    <_>
      116. 120. 111. 112. 110. 69. 51. 50. 65. 87. 95. 128. 146. 111.
      60. 65. 84. 75. 61. 61. 79. 70. 53. 76. 157. 180. 191. 178. 168.
      95. 40. 41. 164. 182. 217. 223. 249. 198. 97. 102. 171. 178. 218.
      223. 240. 185. 116. 153. 170. 175. 220. 215. 241. 182. 116. 132.
      162. 165. 215. 215. 239. 184. 119. 130. 175. 161. 216. 214. 242.
      197. 122. 134. 180. 164. 214. 221. 243. 204. 118. 134. 175. 159.
      209. 216. 241. 210. 118. 126. 157. 148. 186. 214. 226. 203. 113.
      123. 83. 102. 134. 183. 198. 183. 98. 113. 12. 37. 32. 67. 75. 88.
      60. 78. 5. 12. 11. 14. 16. 19. 20. 20. 0. 1. 6. 8. 10. 8. 11. 8.</_>
    <_>
      176. 152. 90. 62. 213. 144. 207. 187. 172. 161. 90. 65. 213. 139.
      203. 183. 164. 161. 88. 67. 213. 146. 202. 194. 161. 164. 83. 62.
      217. 147. 203. 191. 161. 167. 83. 64. 226. 148. 204. 191. 152.
      168. 76. 63. 226. 151. 207. 203. 148. 164. 78. 63. 227. 149. 207.
      209. 146. 166. 73. 69. 231. 144. 204. 205. 138. 169. 66. 71. 222.
      148. 197. 207. 136. 164. 68. 69. 220. 146. 196. 205. 132. 163. 62.
      73. 215. 142. 189. 195. 119. 161. 58. 73. 213. 145. 181. 193. 83.
      154. 56. 69. 212. 145. 179. 192. 61. 130. 46. 74. 211. 142. 178.
      183. 42. 81. 30. 70. 208. 146. 170. 191. 31. 48. 21. 60. 194. 147.
      168. 188.</_>
    <_>
      22. 17. 19. 14. 23. 32. 26. 26. 39. 31. 39. 28. 39. 57. 44. 47.
      64. 58. 61. 45. 62. 90. 67. 72. 100. 77. 105. 78. 117. 175. 123.
      137. 71. 64. 95. 70. 115. 181. 137. 158. 90. 63. 59. 38. 51. 64.
      52. 57. 140. 125. 141. 88. 135. 171. 102. 107. 153. 126. 158. 102.
      171. 208. 143. 144. 158. 117. 164. 111. 181. 214. 160. 151. 167.
      112. 160. 113. 178. 210. 162. 154. 167. 101. 144. 115. 172. 193.
      144. 142. 148. 86. 136. 106. 162. 166. 132. 134. 63. 57. 98. 82.
      141. 140. 118. 122. 0. 6. 18. 22. 57. 75. 81. 100. 0. 1. 1. 2. 7.
      12. 22. 35. 0. 0. 0. 0. 1. 1. 2. 6.</_>
    <_>
      98. 60. 49. 118. 136. 140. 104. 59. 116. 71. 59. 141. 161. 165.
      117. 75. 132. 85. 69. 157. 177. 184. 120. 84. 137. 89. 71. 160.
      192. 185. 119. 93. 141. 95. 70. 176. 206. 194. 119. 104. 150. 99.
      78. 195. 216. 201. 119. 116. 150. 109. 89. 198. 217. 207. 119.
      126. 146. 105. 85. 196. 225. 205. 117. 132. 143. 104. 84. 201.
      224. 198. 114. 136. 143. 106. 90. 206. 223. 197. 110. 141. 145.
      107. 98. 211. 221. 189. 102. 138. 143. 100. 96. 202. 212. 178. 93.
      128. 128. 87. 82. 179. 189. 149. 78. 106. 105. 74. 76. 145. 136.
      93. 51. 61. 76. 55. 59. 89. 79. 55. 34. 38. 48. 40. 40. 55. 54.
      38. 27. 30.</_>
    <_>
      35. 26. 51. 58. 87. 74. 92. 99. 37. 23. 40. 38. 41. 31. 36. 35.
      82. 46. 99. 112. 134. 89. 57. 57. 112. 61. 147. 151. 201. 137. 92.
      88. 122. 65. 163. 168. 218. 155. 111. 98. 129. 69. 164. 173. 225.
      163. 121. 101. 133. 72. 162. 170. 224. 166. 127. 103. 140. 78.
      157. 169. 232. 176. 133. 103. 143. 84. 159. 171. 231. 182. 138.
      108. 140. 86. 143. 164. 214. 159. 125. 100. 137. 89. 132. 149.
      192. 144. 120. 91. 138. 92. 126. 149. 185. 138. 122. 90. 136. 91.
      121. 149. 174. 135. 122. 91. 129. 91. 114. 144. 159. 125. 117. 88.
      117. 90. 108. 141. 148. 119. 111. 83. 92. 77. 96. 136. 135. 111.
      104. 78.</_>
    <_>
      10. 11. 11. 12. 11. 10. 12. 11. 11. 12. 12. 12. 15. 14. 11. 10.
      12. 14. 17. 26. 39. 33. 24. 16. 17. 16. 27. 62. 98. 92. 59. 37.
      26. 25. 40. 101. 168. 156. 103. 54. 36. 30. 53. 129. 208. 208.
      138. 63. 43. 36. 59. 149. 229. 223. 150. 62. 44. 38. 65. 155. 229.
      217. 135. 56. 49. 39. 68. 158. 223. 198. 114. 58. 49. 37. 71. 166.
      200. 147. 80. 49. 53. 35. 68. 140. 143. 86. 44. 45. 45. 32. 56.
      96. 80. 36. 21. 32. 37. 27. 36. 52. 37. 15. 12. 20. 27. 20. 17.
      19. 11. 6. 6. 8. 19. 14. 11. 9. 6. 6. 6. 6. 16. 13. 8. 5. 5. 5. 5.
      6.</_>
    <_>
      26. 32. 56. 88. 88. 88. 89. 92. 47. 72. 67. 84. 78. 79. 80. 88.
      29. 48. 51. 46. 22. 24. 24. 57. 18. 24. 17. 16. 19. 20. 21. 23.
      19. 22. 16. 19. 22. 23. 25. 26. 23. 10. 59. 73. 75. 77. 78. 80.
      19. 16. 73. 88. 88. 88. 88. 88. 8. 17. 74. 88. 88. 88. 88. 87. 8.
      12. 73. 87. 88. 88. 87. 88. 19. 28. 79. 88. 88. 87. 88. 87. 53.
      62. 82. 88. 88. 87. 87. 86. 10. 16. 76. 87. 87. 87. 87. 85. 8. 21.
      76. 87. 87. 87. 86. 84. 9. 20. 69. 88. 88. 87. 86. 84. 8. 18. 59.
      89. 88. 87. 86. 84. 9. 10. 38. 88. 87. 86. 85. 84.</_>
    <_>
      56. 51. 63. 78. 91. 89. 90. 82. 117. 118. 146. 167. 185. 181. 180.
      159. 173. 176. 206. 216. 233. 232. 219. 203. 178. 182. 189. 194.
      218. 219. 203. 192. 165. 154. 144. 150. 168. 163. 149. 151. 168.
      185. 174. 199. 223. 205. 184. 204. 167. 180. 170. 204. 226. 207.
      184. 202. 153. 181. 165. 201. 222. 201. 185. 196. 135. 175. 156.
      197. 212. 184. 175. 184. 128. 158. 137. 185. 196. 167. 163. 170.
      42. 80. 83. 154. 167. 155. 154. 158. 1. 2. 1. 1. 12. 30. 48. 80.
      1. 1. 1. 1. 1. 1. 1. 1. 0. 0. 0. 0. 0. 0. 0. 0. 0. 0. 0. 0. 0. 0.
      0. 0. 0. 0. 0. 0. 0. 0. 0. 0.</_>
    <_>
      0. 0. 0. 0. 0. 0. 0. 0. 0. 0. 0. 0. 0. 0. 0. 0. 0. 0. 0. 0. 0. 0.
      0. 0. 0. 0. 0. 0. 0. 0. 0. 0. 0. 0. 0. 0. 0. 0. 0. 0. 14. 4. 13.
      19. 15. 3. 2. 4. 27. 9. 31. 48. 36. 10. 9. 15. 26. 10. 27. 44. 43.
      18. 9. 16. 23. 9. 20. 33. 46. 29. 9. 17. 20. 9. 11. 13. 40. 36. 9.
      17. 17. 9. 10. 9. 32. 40. 10. 17. 14. 9. 8. 9. 28. 41. 11. 16. 10.
      9. 8. 8. 29. 40. 10. 12. 9. 15. 11. 10. 35. 38. 10. 10. 9. 20. 30.
      22. 42. 34. 9. 10. 8. 20. 44. 43. 44. 27. 9. 10.</_>
    <_>
      6. 5. 13. 16. 105. 12. 15. 7. 8. 9. 6. 8. 121. 12. 15. 6. 6. 9.
      13. 12. 118. 11. 15. 6. 4. 6. 14. 14. 72. 13. 15. 6. 7. 11. 13.
      17. 23. 32. 15. 6. 18. 14. 14. 11. 29. 45. 15. 6. 14. 18. 14. 15.
      20. 56. 16. 6. 18. 18. 14. 16. 15. 90. 17. 17. 22. 20. 18. 12. 13.
      78. 18. 14. 16. 13. 13. 14. 10. 79. 23. 13. 16. 16. 17. 14. 93.
      64. 18. 13. 47. 58. 41. 17. 32. 13. 16. 12. 38. 38. 38. 39. 73.
      10. 16. 9. 26. 25. 22. 16. 44. 14. 19. 8. 27. 12. 10. 7. 6. 16.
      17. 6. 24. 12. 8. 9. 8. 18. 16. 5.</_>
    <_>
      7. 5. 10. 8. 153. 13. 16. 8. 8. 10. 9. 8. 162. 14. 16. 8. 5. 7.
      18. 14. 144. 13. 16. 7. 4. 6. 13. 14. 58. 48. 16. 7. 8. 14. 13.
      14. 25. 59. 17. 7. 20. 21. 17. 10. 27. 96. 19. 7. 16. 22. 16. 16.
      21. 87. 25. 9. 22. 27. 17. 13. 14. 130. 29. 19. 22. 33. 28. 10.
      15. 78. 30. 16. 15. 33. 17. 15. 28. 107. 34. 17. 16. 21. 22. 12.
      91. 92. 20. 15. 49. 57. 53. 24. 29. 8. 13. 14. 41. 39. 38. 38. 67.
      47. 16. 11. 28. 26. 20. 13. 13. 20. 17. 10. 27. 12. 7. 7. 6. 15.
      17. 9. 24. 12. 8. 7. 8. 16. 16. 6.</_>
    <_>
      20. 23. 30. 36. 37. 29. 21. 18. 20. 20. 23. 28. 37. 37. 24. 19.
      20. 21. 24. 25. 27. 30. 21. 20. 22. 26. 27. 41. 102. 72. 26. 20.
      26. 40. 39. 54. 219. 234. 98. 29. 32. 48. 62. 109. 226. 247. 161.
      64. 45. 51. 89. 198. 254. 226. 124. 97. 58. 56. 118. 234. 254.
      248. 138. 85. 64. 55. 141. 246. 255. 243. 116. 80. 50. 43. 113.
      243. 255. 228. 91. 76. 30. 30. 63. 180. 237. 185. 94. 93. 27. 24.
      42. 64. 81. 79. 76. 81. 23. 23. 33. 53. 58. 59. 61. 63. 22. 22.
      24. 36. 46. 48. 48. 49. 23. 22. 23. 24. 31. 36. 36. 37. 22. 22.
      22. 23. 24. 31. 34. 35.</_>
    <_>
      166. 249. 241. 92. 26. 19. 18. 20. 181. 251. 199. 57. 23. 18. 18.
      19. 213. 226. 125. 34. 20. 17. 18. 18. 223. 154. 54. 20. 18. 16.
      16. 16. 177. 78. 23. 15. 17. 15. 14. 13. 100. 35. 15. 15. 17. 14.
      13. 13. 38. 17. 13. 14. 16. 13. 12. 13. 18. 13. 13. 15. 16. 12.
      12. 13. 14. 13. 12. 15. 16. 13. 12. 13. 13. 12. 12. 15. 15. 12.
      12. 13. 12. 11. 11. 15. 15. 12. 12. 13. 11. 11. 11. 15. 14. 12.
      13. 13. 11. 11. 12. 15. 14. 12. 12. 12. 11. 11. 12. 16. 13. 12.
      12. 12. 12. 11. 13. 15. 13. 12. 12. 13. 12. 11. 13. 16. 13. 13.
      13. 12.</_>
    <_>
      18. 18. 22. 38. 97. 218. 231. 155. 22. 21. 26. 48. 140. 252. 254.
      219. 23. 23. 37. 59. 176. 254. 255. 248. 21. 24. 50. 73. 213. 255.
      255. 255. 23. 25. 56. 84. 226. 255. 255. 255. 27. 26. 56. 94. 230.
      255. 255. 255. 38. 29. 56. 102. 232. 255. 255. 255. 65. 35. 55.
      109. 235. 255. 255. 255. 161. 49. 57. 119. 245. 255. 255. 255.
      229. 71. 58. 126. 250. 255. 255. 255. 246. 96. 61. 132. 250. 255.
      255. 255. 249. 111. 63. 138. 250. 255. 255. 255. 251. 125. 64.
      144. 251. 255. 255. 255. 253. 142. 66. 149. 252. 255. 255. 255.
      254. 158. 67. 154. 253. 255. 255. 255. 254. 172. 68. 156. 252.
      255. 255. 255.</_>
    <_>
      67. 174. 224. 228. 182. 68. 10. 5. 40. 164. 234. 249. 234. 168.
      51. 9. 17. 112. 224. 251. 249. 220. 134. 36. 18. 42. 193. 246.
      254. 237. 193. 100. 44. 18. 94. 223. 249. 244. 216. 159. 109. 46.
      23. 138. 228. 235. 222. 178. 153. 142. 37. 42. 170. 222. 215. 188.
      144. 218. 138. 24. 69. 182. 208. 184. 125. 232. 232. 102. 20. 90.
      174. 178. 134. 218. 250. 211. 57. 22. 87. 139. 126. 215. 249. 249.
      161. 31. 24. 78. 102. 208. 250. 254. 236. 98. 15. 24. 80. 184.
      242. 255. 253. 192. 45. 11. 72. 134. 235. 254. 254. 236. 120. 21.
      71. 84. 201. 251. 255. 249. 195. 64. 71. 73. 128. 234. 250. 250.
      228. 137.</_>
    <_>
      5. 18. 129. 214. 214. 80. 7. 6. 5. 9. 112. 233. 250. 217. 52. 7.
      6. 6. 57. 223. 254. 253. 185. 23. 18. 5. 20. 179. 253. 255. 243.
      119. 86. 25. 7. 115. 246. 255. 252. 202. 151. 137. 14. 40. 218.
      254. 247. 219. 187. 219. 108. 9. 135. 247. 239. 210. 207. 239.
      216. 51. 34. 202. 233. 191. 222. 248. 247. 155. 13. 84. 208. 176.
      214. 252. 253. 214. 57. 13. 117. 153. 160. 250. 254. 235. 122. 14.
      26. 93. 70. 235. 254. 244. 163. 31. 11. 33. 15. 174. 252. 249.
      189. 56. 11. 18. 6. 77. 230. 249. 210. 84. 14. 14. 5. 16. 163.
      234. 220. 121. 22. 12. 5. 6. 63. 202. 210. 148. 34. 11.</_>
    <_>
      34. 93. 177. 227. 224. 199. 123. 49. 32. 104. 150. 164. 219. 198.
      119. 47. 28. 112. 127. 84. 191. 184. 114. 45. 24. 116. 113. 79.
      179. 177. 110. 48. 22. 120. 94. 113. 172. 158. 105. 49. 19. 126.
      83. 101. 145. 160. 105. 51. 18. 130. 76. 65. 107. 178. 104. 57.
      19. 107. 53. 62. 82. 180. 101. 57. 31. 48. 38. 95. 79. 162. 96.
      49. 72. 30. 27. 62. 83. 162. 95. 49. 125. 73. 51. 40. 83. 158. 91.
      55. 137. 134. 110. 66. 90. 145. 89. 59. 145. 156. 135. 115. 118.
      152. 87. 61. 151. 155. 137. 152. 159. 169. 86. 53. 106. 143. 155.
      145. 168. 165. 83. 46. 58. 103. 142. 141. 177. 141. 76. 37.</_>
    <_>
      4. 3. 8. 10. 6. 5. 7. 7. 4. 5. 9. 8. 4. 6. 8. 6. 5. 4. 3. 8. 7. 8.
      8. 7. 9. 3. 3. 11. 7. 8. 6. 6. 24. 3. 3. 9. 11. 8. 6. 14. 30. 3.
      4. 8. 8. 8. 8. 15. 29. 3. 3. 9. 7. 8. 10. 15. 35. 3. 3. 11. 6. 7.
      12. 18. 33. 5. 9. 10. 8. 8. 14. 20. 36. 12. 12. 10. 9. 9. 10. 18.
      33. 15. 14. 15. 12. 10. 8. 16. 34. 18. 21. 20. 18. 12. 8. 26. 23.
      25. 13. 12. 14. 14. 10. 24. 23. 17. 11. 11. 10. 18. 11. 11. 20.
      12. 15. 10. 9. 18. 10. 10. 12. 6. 10. 9. 9. 10. 5. 7.</_>
    <_>
      7. 7. 5. 6. 3. 8. 3. 2. 5. 5. 5. 5. 3. 7. 2. 2. 7. 4. 6. 5. 4. 5.
      6. 3. 9. 4. 6. 7. 7. 3. 5. 3. 35. 3. 5. 11. 6. 3. 2. 3. 56. 6. 5.
      7. 7. 3. 2. 4. 56. 11. 5. 6. 7. 3. 2. 5. 56. 12. 7. 4. 9. 5. 2. 6.
      56. 9. 9. 10. 15. 15. 5. 6. 52. 5. 11. 12. 12. 16. 14. 5. 46. 6.
      10. 17. 15. 23. 18. 9. 46. 7. 11. 14. 15. 22. 29. 21. 47. 9. 12.
      11. 8. 10. 31. 27. 20. 8. 14. 13. 11. 12. 14. 28. 7. 9. 16. 9. 8.
      14. 11. 27. 6. 8. 7. 14. 10. 8. 8. 14.</_>
    <_>
      7. 10. 7. 15. 8. 8. 6. 5. 7. 10. 7. 8. 8. 9. 5. 6. 8. 12. 8. 6. 8.
      7. 4. 5. 8. 12. 11. 7. 10. 11. 7. 6. 13. 14. 12. 10. 12. 9. 8. 7.
      19. 10. 12. 13. 9. 3. 4. 8. 25. 8. 10. 10. 10. 3. 4. 9. 29. 7. 9.
      9. 14. 6. 4. 10. 34. 12. 12. 14. 18. 20. 12. 11. 29. 9. 14. 17.
      22. 26. 29. 13. 34. 9. 16. 18. 27. 32. 35. 20. 42. 13. 24. 17. 17.
      21. 33. 57. 19. 15. 28. 15. 18. 20. 19. 180. 11. 11. 15. 9. 18.
      26. 22. 68. 13. 7. 11. 6. 9. 25. 9. 12. 12. 8. 10. 7. 6. 15. 10.
      12.</_>
    <_>
      4. 6. 7. 13. 9. 12. 10. 12. 3. 8. 11. 10. 7. 10. 10. 17. 3. 8. 11.
      9. 11. 10. 10. 12. 3. 7. 9. 18. 16. 11. 9. 10. 3. 7. 11. 10. 9. 9.
      9. 12. 4. 9. 12. 8. 9. 12. 11. 15. 3. 13. 11. 7. 6. 9. 12. 21. 10.
      19. 16. 12. 9. 11. 15. 23. 23. 23. 19. 16. 13. 12. 17. 24. 22. 19.
      18. 19. 18. 18. 23. 20. 30. 25. 23. 20. 16. 15. 18. 13. 31. 27.
      21. 18. 15. 16. 16. 14. 27. 23. 21. 21. 21. 21. 21. 18. 18. 18.
      16. 18. 17. 18. 19. 15. 15. 17. 18. 17. 18. 18. 16. 13. 19. 20.
      15. 13. 18. 19. 18. 15.</_>
    <_>
      15. 15. 33. 53. 20. 14. 15. 15. 16. 19. 59. 36. 15. 14. 16. 16.
      16. 16. 19. 15. 15. 15. 15. 16. 16. 16. 15. 15. 15. 16. 16. 16.
      16. 16. 16. 16. 15. 15. 16. 16. 16. 16. 15. 15. 15. 15. 15. 16.
      17. 16. 15. 15. 15. 15. 15. 17. 16. 15. 15. 15. 15. 15. 16. 16.
      16. 15. 15. 15. 15. 16. 16. 16. 16. 15. 15. 15. 15. 15. 15. 17.
      16. 15. 15. 15. 15. 15. 16. 16. 16. 15. 15. 15. 15. 15. 16. 16.
      15. 15. 15. 15. 15. 15. 16. 16. 15. 16. 15. 15. 15. 15. 16. 16.
      15. 15. 15. 15. 15. 15. 15. 16. 15. 15. 16. 15. 16. 17. 18. 16.</_>
    <_>
      14. 13. 29. 15. 44. 20. 14. 15. 15. 15. 35. 58. 38. 15. 15. 15.
      15. 15. 16. 18. 15. 14. 15. 15. 16. 15. 15. 15. 15. 15. 15. 16.
      16. 16. 15. 15. 15. 15. 15. 16. 16. 16. 15. 15. 15. 15. 15. 16.
      16. 15. 15. 14. 15. 15. 15. 16. 16. 15. 15. 15. 15. 15. 16. 16.
      16. 15. 15. 15. 15. 15. 15. 16. 16. 14. 15. 15. 15. 15. 15. 16.
      16. 14. 14. 15. 14. 15. 15. 15. 16. 15. 15. 15. 14. 15. 15. 15.
      15. 15. 15. 15. 15. 15. 15. 15. 15. 15. 15. 14. 15. 15. 15. 15.
      15. 16. 15. 15. 15. 15. 14. 14. 17. 25. 26. 24. 22. 20. 17. 15.</_>
    <_>
      14. 15. 32. 18. 21. 43. 13. 14. 14. 14. 24. 53. 56. 24. 13. 14.
      15. 14. 14. 18. 17. 14. 14. 15. 15. 15. 14. 14. 14. 14. 14. 14.
      15. 15. 14. 14. 14. 14. 14. 14. 15. 14. 14. 14. 13. 14. 14. 14.
      15. 14. 14. 14. 14. 14. 14. 15. 15. 14. 14. 14. 13. 14. 14. 15.
      15. 14. 14. 14. 14. 14. 14. 14. 16. 14. 14. 14. 14. 14. 14. 14.
      15. 14. 14. 14. 13. 14. 14. 14. 15. 14. 14. 14. 13. 14. 14. 14.
      15. 15. 14. 14. 14. 14. 14. 14. 14. 14. 14. 14. 14. 13. 14. 14.
      14. 14. 14. 14. 14. 13. 14. 14. 15. 17. 19. 18. 18. 16. 14. 14.</_>
    <_>
      14. 14. 19. 36. 15. 37. 21. 16. 15. 15. 14. 26. 52. 53. 16. 16.
      17. 15. 14. 14. 27. 25. 16. 17. 20. 15. 14. 14. 15. 16. 16. 20.
      26. 16. 14. 14. 14. 15. 16. 23. 37. 16. 14. 14. 13. 15. 16. 30.
      48. 17. 14. 14. 14. 14. 17. 35. 54. 17. 14. 14. 13. 14. 16. 37.
      57. 17. 14. 14. 13. 14. 16. 36. 52. 17. 14. 13. 13. 14. 16. 34.
      44. 18. 15. 14. 13. 14. 16. 28. 32. 17. 15. 14. 13. 14. 15. 22.
      22. 16. 15. 14. 14. 14. 15. 19. 18. 16. 15. 14. 14. 14. 14. 16.
      16. 15. 15. 14. 14. 14. 14. 15. 15. 14. 15. 15. 14. 14. 14. 14.</_>
    <_>
      107. 118. 118. 136. 139. 137. 134. 134. 123. 127. 139. 137. 136.
      137. 134. 122. 135. 137. 137. 137. 137. 133. 89. 46. 131. 132.
      137. 135. 135. 101. 32. 30. 134. 139. 141. 145. 129. 63. 44. 61.
      163. 142. 150. 148. 78. 80. 81. 119. 181. 146. 139. 95. 79. 102.
      104. 174. 192. 150. 120. 104. 92. 163. 161. 208. 198. 158. 130.
      178. 187. 218. 201. 203. 204. 170. 129. 191. 196. 214. 185. 188.
      202. 176. 116. 160. 165. 128. 124. 181. 200. 158. 55. 74. 64. 68.
      119. 167. 145. 55. 24. 33. 39. 60. 115. 113. 61. 23. 28. 34. 34.
      76. 98. 93. 30. 24. 32. 36. 58. 93. 93. 82. 31. 34. 32. 56. 88.
      90. 89. 81.</_>
    <_>
      147. 139. 139. 138. 123. 39. 32. 76. 151. 144. 151. 149. 80. 35.
      30. 52. 152. 146. 153. 92. 64. 50. 51. 75. 152. 140. 101. 82. 85.
      75. 112. 160. 151. 126. 84. 86. 91. 106. 142. 207. 152. 124. 113.
      86. 134. 110. 191. 210. 152. 131. 167. 151. 190. 182. 203. 203.
      153. 131. 199. 197. 217. 208. 201. 196. 151. 129. 200. 194. 215.
      205. 196. 197. 144. 122. 191. 187. 204. 190. 190. 198. 127. 78.
      162. 144. 131. 155. 184. 193. 74. 35. 95. 62. 70. 143. 184. 166.
      26. 24. 42. 50. 72. 164. 170. 137. 22. 28. 35. 47. 74. 144. 132.
      129. 25. 34. 33. 40. 82. 109. 106. 103. 28. 33. 31. 43. 97. 99.
      89. 75.</_>
    <_>
      39. 54. 75. 108. 144. 152. 118. 80. 36. 47. 65. 99. 142. 152. 125.
      91. 32. 44. 61. 91. 126. 137. 119. 93. 36. 40. 58. 84. 102. 111.
      108. 98. 47. 37. 55. 81. 97. 107. 115. 122. 55. 36. 55. 91. 112.
      126. 139. 157. 77. 38. 56. 103. 132. 147. 157. 176. 92. 41. 54.
      110. 153. 167. 169. 177. 96. 42. 56. 118. 178. 194. 184. 175. 102.
      47. 61. 126. 194. 227. 202. 171. 85. 44. 63. 130. 201. 238. 224.
      180. 60. 40. 61. 132. 208. 241. 240. 206. 47. 42. 66. 128. 201.
      239. 247. 233. 46. 52. 92. 135. 188. 229. 245. 242. 42. 61. 126.
      165. 188. 216. 232. 239. 38. 58. 141. 196. 197. 203. 215. 223.</_>
    <_>
      176. 149. 94. 140. 95. 64. 53. 51. 47. 41. 39. 44. 52. 64. 54. 51.
      34. 38. 57. 76. 78. 64. 54. 51. 44. 61. 131. 166. 140. 64. 55. 50.
      116. 131. 178. 206. 141. 64. 54. 50. 137. 160. 181. 211. 145. 64.
      54. 50. 146. 177. 164. 212. 142. 65. 54. 51. 144. 111. 54. 184.
      152. 57. 54. 51. 97. 17. 32. 100. 86. 39. 50. 51. 24. 17. 8. 24.
      54. 27. 38. 49. 15. 6. 13. 34. 13. 15. 30. 46. 18. 5. 36. 35. 12.
      24. 27. 41. 12. 13. 33. 23. 29. 29. 41. 41. 10. 23. 34. 30. 18.
      21. 35. 43. 43. 37. 25. 25. 20. 17. 42. 43. 28. 24. 18. 18. 14.
      23. 42. 27.</_>
    <_>
      233. 236. 250. 224. 109. 60. 59. 71. 190. 177. 166. 134. 84. 61.
      60. 67. 53. 48. 44. 47. 68. 62. 59. 66. 43. 41. 65. 142. 105. 62.
      59. 65. 66. 91. 166. 210. 114. 61. 58. 67. 148. 173. 205. 218.
      114. 61. 59. 68. 178. 187. 220. 219. 114. 62. 59. 68. 179. 184.
      196. 216. 99. 61. 59. 68. 176. 139. 101. 119. 71. 59. 58. 68. 174.
      49. 33. 32. 50. 56. 57. 67. 128. 15. 17. 22. 22. 50. 55. 66. 52.
      14. 39. 19. 26. 48. 56. 64. 55. 13. 40. 30. 35. 51. 54. 62. 54.
      14. 36. 30. 20. 46. 51. 61. 43. 38. 29. 21. 30. 30. 49. 59. 55.
      31. 20. 16. 41. 22. 46. 59.</_></uncompressed_support_vectors>
  <decision_functions>
    <_>
      <sv_count>1</sv_count>
      <rho>-3.6582472918417736e-01</rho>
      <alpha>
        1.</alpha>
      <index>
        0</index></_>
    <_>
      <sv_count>1</sv_count>
      <rho>-7.4350075185563025e-01</rho>
      <alpha>
        1.</alpha>
      <index>
        1</index></_>
    <_>
      <sv_count>1</sv_count>
      <rho>-7.6612262898305916e-01</rho>
      <alpha>
        1.</alpha>
      <index>
        2</index></_>
    <_>
      <sv_count>1</sv_count>
      <rho>-7.9315268202878009e-01</rho>
      <alpha>
        1.</alpha>
      <index>
        3</index></_>
    <_>
      <sv_count>1</sv_count>
      <rho>-7.7120105105745473e-01</rho>
      <alpha>
        1.</alpha>
      <index>
        4</index></_>
    <_>
      <sv_count>1</sv_count>
      <rho>-7.7254513669117197e-01</rho>
      <alpha>
        1.</alpha>
      <index>
        5</index></_>
    <_>
      <sv_count>1</sv_count>
      <rho>-8.5437718688833253e-01</rho>
      <alpha>
        1.</alpha>
      <index>
        6</index></_>
    <_>
      <sv_count>1</sv_count>
      <rho>-1.0816706881128779e+00</rho>
      <alpha>
        1.</alpha>
      <index>
        7</index></_>
    <_>
      <sv_count>1</sv_count>
      <rho>-4.2821623837923406e-01</rho>
      <alpha>
        1.</alpha>
      <index>
        8</index></_>
    <_>
      <sv_count>1</sv_count>
      <rho>-3.4914928914714777e-01</rho>
      <alpha>
        1.</alpha>
      <index>
        9</index></_>
    <_>
      <sv_count>1</sv_count>
      <rho>-5.8967319168880095e-01</rho>
      <alpha>
        1.</alpha>
      <index>
        10</index></_>
    <_>
      <sv_count>1</sv_count>
      <rho>4.9777525828811620e-01</rho>
      <alpha>
        1.</alpha>
      <index>
        11</index></_>
    <_>
      <sv_count>1</sv_count>
      <rho>-7.6316864877871262e-03</rho>
      <alpha>
        1.</alpha>
      <index>
        12</index></_>
    <_>
      <sv_count>1</sv_count>
      <rho>4.0676244616080937e-01</rho>
      <alpha>
        1.</alpha>
      <index>
        13</index></_>
    <_>
      <sv_count>1</sv_count>
      <rho>5.1587828571771210e-01</rho>
      <alpha>
        1.</alpha>
      <index>
        14</index></_></decision_functions></opencv_ml_svm>
</opencv_storage>
